<MethodSetup Method="BDT::BDT"><Variables NVar="49"><Variable VarIndex="0" Type="F" Expression="pho1_eta" Label="pho1_eta" Title="pho1_eta" Unit="" Internal="pho1_eta" Min="0.0e+00" Max="0.0e+00" /><Variable VarIndex="1" Type="F" Expression="pho1_phi" Label="pho1_phi" Title="pho1_phi" Unit="" Internal="pho1_phi" Min="0.0e+00" Max="0.0e+00" /><Variable VarIndex="2" Type="F" Expression="pho1_idmva" Label="pho1_idmva" Title="pho1_idmva" Unit="" Internal="pho1_idmva" Min="0.0e+00" Max="0.0e+00" /><Variable VarIndex="3" Type="F" Expression="pho1_ptOverMgg" Label="pho1_ptOverMgg" Title="pho1_ptOverMgg" Unit="" Internal="pho1_ptOverMgg" Min="0.0e+00" Max="0.0e+00" /><Variable VarIndex="4" Type="F" Expression="pho2_eta" Label="pho2_eta" Title="pho2_eta" Unit="" Internal="pho2_eta" Min="0.0e+00" Max="0.0e+00" /><Variable VarIndex="5" Type="F" Expression="pho2_phi" Label="pho2_phi" Title="pho2_phi" Unit="" Internal="pho2_phi" Min="0.0e+00" Max="0.0e+00" /><Variable VarIndex="6" Type="F" Expression="pho2_idmva" Label="pho2_idmva" Title="pho2_idmva" Unit="" Internal="pho2_idmva" Min="0.0e+00" Max="0.0e+00" /><Variable VarIndex="7" Type="F" Expression="pho2_ptOverMgg" Label="pho2_ptOverMgg" Title="pho2_ptOverMgg" Unit="" Internal="pho2_ptOverMgg" Min="0.0e+00" Max="0.0e+00" /><Variable VarIndex="8" Type="F" Expression="mu1_pt" Label="mu1_pt" Title="mu1_pt" Unit="" Internal="mu1_pt" Min="0.0e+00" Max="0.0e+00" /><Variable VarIndex="9" Type="F" Expression="mu1_phi" Label="mu1_phi" Title="mu1_phi" Unit="" Internal="mu1_phi" Min="0.0e+00" Max="0.0e+00" /><Variable VarIndex="10" Type="F" Expression="mu1_eta" Label="mu1_eta" Title="mu1_eta" Unit="" Internal="mu1_eta" Min="0.0e+00" Max="0.0e+00" /><Variable VarIndex="11" Type="F" Expression="mu1_energy" Label="mu1_energy" Title="mu1_energy" Unit="" Internal="mu1_energy" Min="0.0e+00" Max="0.0e+00" /><Variable VarIndex="12" Type="F" Expression="mu2_pt" Label="mu2_pt" Title="mu2_pt" Unit="" Internal="mu2_pt" Min="0.0e+00" Max="0.0e+00" /><Variable VarIndex="13" Type="F" Expression="mu2_phi" Label="mu2_phi" Title="mu2_phi" Unit="" Internal="mu2_phi" Min="0.0e+00" Max="0.0e+00" /><Variable VarIndex="14" Type="F" Expression="mu2_eta" Label="mu2_eta" Title="mu2_eta" Unit="" Internal="mu2_eta" Min="0.0e+00" Max="0.0e+00" /><Variable VarIndex="15" Type="F" Expression="mu2_energy" Label="mu2_energy" Title="mu2_energy" Unit="" Internal="mu2_energy" Min="0.0e+00" Max="0.0e+00" /><Variable VarIndex="16" Type="F" Expression="ele1_pt" Label="ele1_pt" Title="ele1_pt" Unit="" Internal="ele1_pt" Min="0.0e+00" Max="0.0e+00" /><Variable VarIndex="17" Type="F" Expression="ele1_phi" Label="ele1_phi" Title="ele1_phi" Unit="" Internal="ele1_phi" Min="0.0e+00" Max="0.0e+00" /><Variable VarIndex="18" Type="F" Expression="ele1_eta" Label="ele1_eta" Title="ele1_eta" Unit="" Internal="ele1_eta" Min="0.0e+00" Max="0.0e+00" /><Variable VarIndex="19" Type="F" Expression="ele1_energy" Label="ele1_energy" Title="ele1_energy" Unit="" Internal="ele1_energy" Min="0.0e+00" Max="0.0e+00" /><Variable VarIndex="20" Type="F" Expression="ele2_pt" Label="ele2_pt" Title="ele2_pt" Unit="" Internal="ele2_pt" Min="0.0e+00" Max="0.0e+00" /><Variable VarIndex="21" Type="F" Expression="ele2_phi" Label="ele2_phi" Title="ele2_phi" Unit="" Internal="ele2_phi" Min="0.0e+00" Max="0.0e+00" /><Variable VarIndex="22" Type="F" Expression="ele2_eta" Label="ele2_eta" Title="ele2_eta" Unit="" Internal="ele2_eta" Min="0.0e+00" Max="0.0e+00" /><Variable VarIndex="23" Type="F" Expression="ele2_energy" Label="ele2_energy" Title="ele2_energy" Unit="" Internal="ele2_energy" Min="0.0e+00" Max="0.0e+00" /><Variable VarIndex="24" Type="F" Expression="jet1_pt" Label="jet1_pt" Title="jet1_pt" Unit="" Internal="jet1_pt" Min="0.0e+00" Max="0.0e+00" /><Variable VarIndex="25" Type="F" Expression="jet1_phi" Label="jet1_phi" Title="jet1_phi" Unit="" Internal="jet1_phi" Min="0.0e+00" Max="0.0e+00" /><Variable VarIndex="26" Type="F" Expression="jet1_eta" Label="jet1_eta" Title="jet1_eta" Unit="" Internal="jet1_eta" Min="0.0e+00" Max="0.0e+00" /><Variable VarIndex="27" Type="F" Expression="jet1_energy" Label="jet1_energy" Title="jet1_energy" Unit="" Internal="jet1_energy" Min="0.0e+00" Max="0.0e+00" /><Variable VarIndex="28" Type="F" Expression="jet2_pt" Label="jet2_pt" Title="jet2_pt" Unit="" Internal="jet2_pt" Min="0.0e+00" Max="0.0e+00" /><Variable VarIndex="29" Type="F" Expression="jet2_phi" Label="jet2_phi" Title="jet2_phi" Unit="" Internal="jet2_phi" Min="0.0e+00" Max="0.0e+00" /><Variable VarIndex="30" Type="F" Expression="jet2_eta" Label="jet2_eta" Title="jet2_eta" Unit="" Internal="jet2_eta" Min="0.0e+00" Max="0.0e+00" /><Variable VarIndex="31" Type="F" Expression="jet2_energy" Label="jet2_energy" Title="jet2_energy" Unit="" Internal="jet2_energy" Min="0.0e+00" Max="0.0e+00" /><Variable VarIndex="32" Type="F" Expression="cosPhiGG" Label="cosPhiGG" Title="cosPhiGG" Unit="" Internal="cosPhiGG" Min="0.0e+00" Max="0.0e+00" /><Variable VarIndex="33" Type="F" Expression="cosPhiG1_Mu1" Label="cosPhiG1_Mu1" Title="cosPhiG1_Mu1" Unit="" Internal="cosPhiG1_Mu1" Min="0.0e+00" Max="0.0e+00" /><Variable VarIndex="34" Type="F" Expression="cosPhiG1_Ele1" Label="cosPhiG1_Ele1" Title="cosPhiG1_Ele1" Unit="" Internal="cosPhiG1_Ele1" Min="0.0e+00" Max="0.0e+00" /><Variable VarIndex="35" Type="F" Expression="cosPhiG2_Mu1" Label="cosPhiG2_Mu1" Title="cosPhiG2_Mu1" Unit="" Internal="cosPhiG2_Mu1" Min="0.0e+00" Max="0.0e+00" /><Variable VarIndex="36" Type="F" Expression="cosPhiG2_Ele1" Label="cosPhiG2_Ele1" Title="cosPhiG2_Ele1" Unit="" Internal="cosPhiG2_Ele1" Min="0.0e+00" Max="0.0e+00" /><Variable VarIndex="37" Type="F" Expression="dR_Pho1Ele1_wh" Label="dR_Pho1Ele1_wh" Title="dR_Pho1Ele1_wh" Unit="" Internal="dR_Pho1Ele1_wh" Min="0.0e+00" Max="0.0e+00" /><Variable VarIndex="38" Type="F" Expression="dR_Pho2Ele1_wh" Label="dR_Pho2Ele1_wh" Title="dR_Pho2Ele1_wh" Unit="" Internal="dR_Pho2Ele1_wh" Min="0.0e+00" Max="0.0e+00" /><Variable VarIndex="39" Type="F" Expression="dR_Pho1Mu1_wh" Label="dR_Pho1Mu1_wh" Title="dR_Pho1Mu1_wh" Unit="" Internal="dR_Pho1Mu1_wh" Min="0.0e+00" Max="0.0e+00" /><Variable VarIndex="40" Type="F" Expression="dR_Pho2Mu1_wh" Label="dR_Pho2Mu1_wh" Title="dR_Pho2Mu1_wh" Unit="" Internal="dR_Pho2Mu1_wh" Min="0.0e+00" Max="0.0e+00" /><Variable VarIndex="41" Type="F" Expression="dR_Pho1Jet1_wh" Label="dR_Pho1Jet1_wh" Title="dR_Pho1Jet1_wh" Unit="" Internal="dR_Pho1Jet1_wh" Min="0.0e+00" Max="0.0e+00" /><Variable VarIndex="42" Type="F" Expression="dR_Pho2Jet1_wh" Label="dR_Pho2Jet1_wh" Title="dR_Pho2Jet1_wh" Unit="" Internal="dR_Pho2Jet1_wh" Min="0.0e+00" Max="0.0e+00" /><Variable VarIndex="43" Type="F" Expression="dR_Pho1Jet2_wh" Label="dR_Pho1Jet2_wh" Title="dR_Pho1Jet2_wh" Unit="" Internal="dR_Pho1Jet2_wh" Min="0.0e+00" Max="0.0e+00" /><Variable VarIndex="44" Type="F" Expression="dR_Pho2Jet2_wh" Label="dR_Pho2Jet2_wh" Title="dR_Pho2Jet2_wh" Unit="" Internal="dR_Pho2Jet2_wh" Min="0.0e+00" Max="0.0e+00" /><Variable VarIndex="45" Type="F" Expression="dR_Mu1Jet1_wh" Label="dR_Mu1Jet1_wh" Title="dR_Mu1Jet1_wh" Unit="" Internal="dR_Mu1Jet1_wh" Min="0.0e+00" Max="0.0e+00" /><Variable VarIndex="46" Type="F" Expression="dR_Mu1Jet2_wh" Label="dR_Mu1Jet2_wh" Title="dR_Mu1Jet2_wh" Unit="" Internal="dR_Mu1Jet2_wh" Min="0.0e+00" Max="0.0e+00" /><Variable VarIndex="47" Type="F" Expression="dR_Ele1Jet1_wh" Label="dR_Ele1Jet1_wh" Title="dR_Ele1Jet1_wh" Unit="" Internal="dR_Ele1Jet1_wh" Min="0.0e+00" Max="0.0e+00" /><Variable VarIndex="48" Type="F" Expression="dR_Ele1Jet2_wh" Label="dR_Ele1Jet2_wh" Title="dR_Ele1Jet2_wh" Unit="" Internal="dR_Ele1Jet2_wh" Min="0.0e+00" Max="0.0e+00" /></Variables><GeneralInfo><Info name="Creator" value="xgboost2TMVA" /><Info name="AnalysisType" value="Classification" /></GeneralInfo><Options><Option name="NodePurityLimit" modified="No">5.00e-01</Option><Option name="BoostType" modified="Yes">Grad</Option></Options><Weights NTrees="10" AnalysisType="1"><BinaryTree type="DecisionTree" boostWeight="1.0e+00" itree="0"><Node pos="s" depth="0" NCoef="0" IVar="3" Cut="0.968539357" cType="1" res="0.0e+00" rms="0.0e+00" purity="0.0e+00" nType="0"><Node pos="l" depth="1" NCoef="0" IVar="32" Cut="-0.226982445" cType="1" res="0.0e+00" rms="0.0e+00" purity="0.0e+00" nType="0"><Node pos="l" depth="2" NCoef="0" IVar="39" Cut="3.09721708" cType="1" res="0.0e+00" rms="0.0e+00" purity="0.0e+00" nType="0"><Node pos="l" depth="3" NCoef="0" IVar="38" Cut="2.24525118" cType="1" res="0.0e+00" rms="0.0e+00" purity="0.0e+00" nType="0"><Node pos="l" depth="4" NCoef="0" IVar="-1" Cut="0.0e+00" cType="1" res="-0.450688332" rms="0.0e+00" purity="0.0e+00" nType="-99" /><Node pos="r" depth="4" NCoef="0" IVar="-1" Cut="0.0e+00" cType="1" res="-0.104575962" rms="0.0e+00" purity="0.0e+00" nType="-99" /></Node><Node pos="r" depth="3" NCoef="0" IVar="-1" Cut="0.0e+00" cType="1" res="-0.0600271896" rms="0.0e+00" purity="0.0e+00" nType="-99" /></Node><Node pos="r" depth="2" NCoef="0" IVar="3" Cut="0.735920846" cType="1" res="0.0e+00" rms="0.0e+00" purity="0.0e+00" nType="0"><Node pos="l" depth="3" NCoef="0" IVar="7" Cut="0.428567946" cType="1" res="0.0e+00" rms="0.0e+00" purity="0.0e+00" nType="0"><Node pos="l" depth="4" NCoef="0" IVar="-1" Cut="0.0e+00" cType="1" res="-0.115640342" rms="0.0e+00" purity="0.0e+00" nType="-99" /><Node pos="r" depth="4" NCoef="0" IVar="-1" Cut="0.0e+00" cType="1" res="-0.0070726811" rms="0.0e+00" purity="0.0e+00" nType="-99" /></Node><Node pos="r" depth="3" NCoef="0" IVar="32" Cut="0.1878611" cType="1" res="0.0e+00" rms="0.0e+00" purity="0.0e+00" nType="0"><Node pos="l" depth="4" NCoef="0" IVar="-1" Cut="0.0e+00" cType="1" res="0.00579865417" rms="0.0e+00" purity="0.0e+00" nType="-99" /><Node pos="r" depth="4" NCoef="0" IVar="-1" Cut="0.0e+00" cType="1" res="0.127912715" rms="0.0e+00" purity="0.0e+00" nType="-99" /></Node></Node></Node><Node pos="r" depth="1" NCoef="0" IVar="32" Cut="0.166610867" cType="1" res="0.0e+00" rms="0.0e+00" purity="0.0e+00" nType="0"><Node pos="l" depth="2" NCoef="0" IVar="3" Cut="1.1230669" cType="1" res="0.0e+00" rms="0.0e+00" purity="0.0e+00" nType="0"><Node pos="l" depth="3" NCoef="0" IVar="-1" Cut="0.0e+00" cType="1" res="0.0107428301" rms="0.0e+00" purity="0.0e+00" nType="-99" /><Node pos="r" depth="3" NCoef="0" IVar="-1" Cut="0.0e+00" cType="1" res="0.150963575" rms="0.0e+00" purity="0.0e+00" nType="-99" /></Node><Node pos="r" depth="2" NCoef="0" IVar="-1" Cut="0.0e+00" cType="1" res="0.610373855" rms="0.0e+00" purity="0.0e+00" nType="-99" /></Node></Node></BinaryTree><BinaryTree type="DecisionTree" boostWeight="1.0e+00" itree="1"><Node pos="s" depth="0" NCoef="0" IVar="3" Cut="1.2203331" cType="1" res="0.0e+00" rms="0.0e+00" purity="0.0e+00" nType="0"><Node pos="l" depth="1" NCoef="0" IVar="32" Cut="-0.479142606" cType="1" res="0.0e+00" rms="0.0e+00" purity="0.0e+00" nType="0"><Node pos="l" depth="2" NCoef="0" IVar="3" Cut="0.785897672" cType="1" res="0.0e+00" rms="0.0e+00" purity="0.0e+00" nType="0"><Node pos="l" depth="3" NCoef="0" IVar="40" Cut="2.43915606" cType="1" res="0.0e+00" rms="0.0e+00" purity="0.0e+00" nType="0"><Node pos="l" depth="4" NCoef="0" IVar="-1" Cut="0.0e+00" cType="1" res="-0.320405692" rms="0.0e+00" purity="0.0e+00" nType="-99" /><Node pos="r" depth="4" NCoef="0" IVar="-1" Cut="0.0e+00" cType="1" res="-0.0899404064" rms="0.0e+00" purity="0.0e+00" nType="-99" /></Node><Node pos="r" depth="3" NCoef="0" IVar="-1" Cut="0.0e+00" cType="1" res="-0.0522838943" rms="0.0e+00" purity="0.0e+00" nType="-99" /></Node><Node pos="r" depth="2" NCoef="0" IVar="3" Cut="0.775729775" cType="1" res="0.0e+00" rms="0.0e+00" purity="0.0e+00" nType="0"><Node pos="l" depth="3" NCoef="0" IVar="7" Cut="0.519909859" cType="1" res="0.0e+00" rms="0.0e+00" purity="0.0e+00" nType="0"><Node pos="l" depth="4" NCoef="0" IVar="-1" Cut="0.0e+00" cType="1" res="-0.0969345868" rms="0.0e+00" purity="0.0e+00" nType="-99" /><Node pos="r" depth="4" NCoef="0" IVar="-1" Cut="0.0e+00" cType="1" res="0.00804188754" rms="0.0e+00" purity="0.0e+00" nType="-99" /></Node><Node pos="r" depth="3" NCoef="0" IVar="7" Cut="0.400246918" cType="1" res="0.0e+00" rms="0.0e+00" purity="0.0e+00" nType="0"><Node pos="l" depth="4" NCoef="0" IVar="-1" Cut="0.0e+00" cType="1" res="0.00602051662" rms="0.0e+00" purity="0.0e+00" nType="-99" /><Node pos="r" depth="4" NCoef="0" IVar="-1" Cut="0.0e+00" cType="1" res="0.114771411" rms="0.0e+00" purity="0.0e+00" nType="-99" /></Node></Node></Node><Node pos="r" depth="1" NCoef="0" IVar="3" Cut="1.50354767" cType="1" res="0.0e+00" rms="0.0e+00" purity="0.0e+00" nType="0"><Node pos="l" depth="2" NCoef="0" IVar="-1" Cut="0.0e+00" cType="1" res="0.156683192" rms="0.0e+00" purity="0.0e+00" nType="-99" /><Node pos="r" depth="2" NCoef="0" IVar="-1" Cut="0.0e+00" cType="1" res="0.46299842" rms="0.0e+00" purity="0.0e+00" nType="-99" /></Node></Node></BinaryTree><BinaryTree type="DecisionTree" boostWeight="1.0e+00" itree="2"><Node pos="s" depth="0" NCoef="0" IVar="3" Cut="1.09384859" cType="1" res="0.0e+00" rms="0.0e+00" purity="0.0e+00" nType="0"><Node pos="l" depth="1" NCoef="0" IVar="39" Cut="3.25330734" cType="1" res="0.0e+00" rms="0.0e+00" purity="0.0e+00" nType="0"><Node pos="l" depth="2" NCoef="0" IVar="37" Cut="3.15417194" cType="1" res="0.0e+00" rms="0.0e+00" purity="0.0e+00" nType="0"><Node pos="l" depth="3" NCoef="0" IVar="8" Cut="89.3495026" cType="1" res="0.0e+00" rms="0.0e+00" purity="0.0e+00" nType="0"><Node pos="l" depth="4" NCoef="0" IVar="16" Cut="81.7661896" cType="1" res="0.0e+00" rms="0.0e+00" purity="0.0e+00" nType="0"><Node pos="l" depth="5" NCoef="0" IVar="40" Cut="2.99019647" cType="1" res="0.0e+00" rms="0.0e+00" purity="0.0e+00" nType="0"><Node pos="l" depth="6" NCoef="0" IVar="32" Cut="0.106471211" cType="1" res="0.0e+00" rms="0.0e+00" purity="0.0e+00" nType="0"><Node pos="l" depth="7" NCoef="0" IVar="-1" Cut="0.0e+00" cType="1" res="-0.232260793" rms="0.0e+00" purity="0.0e+00" nType="-99" /><Node pos="r" depth="7" NCoef="0" IVar="-1" Cut="0.0e+00" cType="1" res="-0.064456448" rms="0.0e+00" purity="0.0e+00" nType="-99" /></Node><Node pos="r" depth="6" NCoef="0" IVar="-1" Cut="0.0e+00" cType="1" res="-0.00167808693" rms="0.0e+00" purity="0.0e+00" nType="-99" /></Node><Node pos="r" depth="5" NCoef="0" IVar="-1" Cut="0.0e+00" cType="1" res="0.0212606266" rms="0.0e+00" purity="0.0e+00" nType="-99" /></Node><Node pos="r" depth="4" NCoef="0" IVar="-1" Cut="0.0e+00" cType="1" res="0.0485757925" rms="0.0e+00" purity="0.0e+00" nType="-99" /></Node><Node pos="r" depth="3" NCoef="0" IVar="-1" Cut="0.0e+00" cType="1" res="0.138660312" rms="0.0e+00" purity="0.0e+00" nType="-99" /></Node><Node pos="r" depth="2" NCoef="0" IVar="-1" Cut="0.0e+00" cType="1" res="0.158794343" rms="0.0e+00" purity="0.0e+00" nType="-99" /></Node><Node pos="r" depth="1" NCoef="0" IVar="32" Cut="0.608584166" cType="1" res="0.0e+00" rms="0.0e+00" purity="0.0e+00" nType="0"><Node pos="l" depth="2" NCoef="0" IVar="-1" Cut="0.0e+00" cType="1" res="0.0806107745" rms="0.0e+00" purity="0.0e+00" nType="-99" /><Node pos="r" depth="2" NCoef="0" IVar="-1" Cut="0.0e+00" cType="1" res="0.328074545" rms="0.0e+00" purity="0.0e+00" nType="-99" /></Node></Node></BinaryTree><BinaryTree type="DecisionTree" boostWeight="1.0e+00" itree="3"><Node pos="s" depth="0" NCoef="0" IVar="3" Cut="1.70476174" cType="1" res="0.0e+00" rms="0.0e+00" purity="0.0e+00" nType="0"><Node pos="l" depth="1" NCoef="0" IVar="3" Cut="0.666083574" cType="1" res="0.0e+00" rms="0.0e+00" purity="0.0e+00" nType="0"><Node pos="l" depth="2" NCoef="0" IVar="11" Cut="103.60202" cType="1" res="0.0e+00" rms="0.0e+00" purity="0.0e+00" nType="0"><Node pos="l" depth="3" NCoef="0" IVar="37" Cut="2.51298285" cType="1" res="0.0e+00" rms="0.0e+00" purity="0.0e+00" nType="0"><Node pos="l" depth="4" NCoef="0" IVar="-1" Cut="0.0e+00" cType="1" res="-0.187569499" rms="0.0e+00" purity="0.0e+00" nType="-99" /><Node pos="r" depth="4" NCoef="0" IVar="-1" Cut="0.0e+00" cType="1" res="-0.0131561114" rms="0.0e+00" purity="0.0e+00" nType="-99" /></Node><Node pos="r" depth="3" NCoef="0" IVar="-1" Cut="0.0e+00" cType="1" res="-0.00410283776" rms="0.0e+00" purity="0.0e+00" nType="-99" /></Node><Node pos="r" depth="2" NCoef="0" IVar="39" Cut="3.20219231" cType="1" res="0.0e+00" rms="0.0e+00" purity="0.0e+00" nType="0"><Node pos="l" depth="3" NCoef="0" IVar="37" Cut="3.17858624" cType="1" res="0.0e+00" rms="0.0e+00" purity="0.0e+00" nType="0"><Node pos="l" depth="4" NCoef="0" IVar="33" Cut="-0.778558373" cType="1" res="0.0e+00" rms="0.0e+00" purity="0.0e+00" nType="0"><Node pos="l" depth="5" NCoef="0" IVar="16" Cut="105.664734" cType="1" res="0.0e+00" rms="0.0e+00" purity="0.0e+00" nType="0"><Node pos="l" depth="6" NCoef="0" IVar="8" Cut="119.681732" cType="1" res="0.0e+00" rms="0.0e+00" purity="0.0e+00" nType="0"><Node pos="l" depth="7" NCoef="0" IVar="34" Cut="-0.835632205" cType="1" res="0.0e+00" rms="0.0e+00" purity="0.0e+00" nType="0"><Node pos="l" depth="8" NCoef="0" IVar="-1" Cut="0.0e+00" cType="1" res="-0.152842537" rms="0.0e+00" purity="0.0e+00" nType="-99" /><Node pos="r" depth="8" NCoef="0" IVar="-1" Cut="0.0e+00" cType="1" res="0.0205338355" rms="0.0e+00" purity="0.0e+00" nType="-99" /></Node><Node pos="r" depth="7" NCoef="0" IVar="-1" Cut="0.0e+00" cType="1" res="0.0446478799" rms="0.0e+00" purity="0.0e+00" nType="-99" /></Node><Node pos="r" depth="6" NCoef="0" IVar="-1" Cut="0.0e+00" cType="1" res="0.048745174" rms="0.0e+00" purity="0.0e+00" nType="-99" /></Node><Node pos="r" depth="5" NCoef="0" IVar="8" Cut="44.5464935" cType="1" res="0.0e+00" rms="0.0e+00" purity="0.0e+00" nType="0"><Node pos="l" depth="6" NCoef="0" IVar="-1" Cut="0.0e+00" cType="1" res="0.0917435437" rms="0.0e+00" purity="0.0e+00" nType="-99" /><Node pos="r" depth="6" NCoef="0" IVar="-1" Cut="0.0e+00" cType="1" res="0.00778851379" rms="0.0e+00" purity="0.0e+00" nType="-99" /></Node></Node><Node pos="r" depth="4" NCoef="0" IVar="-1" Cut="0.0e+00" cType="1" res="0.165572688" rms="0.0e+00" purity="0.0e+00" nType="-99" /></Node><Node pos="r" depth="3" NCoef="0" IVar="-1" Cut="0.0e+00" cType="1" res="0.188071698" rms="0.0e+00" purity="0.0e+00" nType="-99" /></Node></Node><Node pos="r" depth="1" NCoef="0" IVar="-1" Cut="0.0e+00" cType="1" res="0.278342336" rms="0.0e+00" purity="0.0e+00" nType="-99" /></Node></BinaryTree><BinaryTree type="DecisionTree" boostWeight="1.0e+00" itree="4"><Node pos="s" depth="0" NCoef="0" IVar="3" Cut="2.03185439" cType="1" res="0.0e+00" rms="0.0e+00" purity="0.0e+00" nType="0"><Node pos="l" depth="1" NCoef="0" IVar="39" Cut="3.35083127" cType="1" res="0.0e+00" rms="0.0e+00" purity="0.0e+00" nType="0"><Node pos="l" depth="2" NCoef="0" IVar="37" Cut="3.22003627" cType="1" res="0.0e+00" rms="0.0e+00" purity="0.0e+00" nType="0"><Node pos="l" depth="3" NCoef="0" IVar="32" Cut="-0.750034511" cType="1" res="0.0e+00" rms="0.0e+00" purity="0.0e+00" nType="0"><Node pos="l" depth="4" NCoef="0" IVar="3" Cut="0.729797363" cType="1" res="0.0e+00" rms="0.0e+00" purity="0.0e+00" nType="0"><Node pos="l" depth="5" NCoef="0" IVar="-1" Cut="0.0e+00" cType="1" res="-0.159437656" rms="0.0e+00" purity="0.0e+00" nType="-99" /><Node pos="r" depth="5" NCoef="0" IVar="-1" Cut="0.0e+00" cType="1" res="-0.0260555446" rms="0.0e+00" purity="0.0e+00" nType="-99" /></Node><Node pos="r" depth="4" NCoef="0" IVar="40" Cut="3.13935399" cType="1" res="0.0e+00" rms="0.0e+00" purity="0.0e+00" nType="0"><Node pos="l" depth="5" NCoef="0" IVar="8" Cut="31.2151756" cType="1" res="0.0e+00" rms="0.0e+00" purity="0.0e+00" nType="0"><Node pos="l" depth="6" NCoef="0" IVar="16" Cut="34.5884552" cType="1" res="0.0e+00" rms="0.0e+00" purity="0.0e+00" nType="0"><Node pos="l" depth="7" NCoef="0" IVar="-1" Cut="0.0e+00" cType="1" res="0.077103734" rms="0.0e+00" purity="0.0e+00" nType="-99" /><Node pos="r" depth="7" NCoef="0" IVar="16" Cut="105.664734" cType="1" res="0.0e+00" rms="0.0e+00" purity="0.0e+00" nType="0"><Node pos="l" depth="8" NCoef="0" IVar="34" Cut="-0.828086138" cType="1" res="0.0e+00" rms="0.0e+00" purity="0.0e+00" nType="0"><Node pos="l" depth="9" NCoef="0" IVar="-1" Cut="0.0e+00" cType="1" res="-0.0935088471" rms="0.0e+00" purity="0.0e+00" nType="-99" /><Node pos="r" depth="9" NCoef="0" IVar="-1" Cut="0.0e+00" cType="1" res="-0.0116226478" rms="0.0e+00" purity="0.0e+00" nType="-99" /></Node><Node pos="r" depth="8" NCoef="0" IVar="-1" Cut="0.0e+00" cType="1" res="0.0423770174" rms="0.0e+00" purity="0.0e+00" nType="-99" /></Node></Node><Node pos="r" depth="6" NCoef="0" IVar="8" Cut="114.754105" cType="1" res="0.0e+00" rms="0.0e+00" purity="0.0e+00" nType="0"><Node pos="l" depth="7" NCoef="0" IVar="33" Cut="-0.903016567" cType="1" res="0.0e+00" rms="0.0e+00" purity="0.0e+00" nType="0"><Node pos="l" depth="8" NCoef="0" IVar="-1" Cut="0.0e+00" cType="1" res="-0.10962256" rms="0.0e+00" purity="0.0e+00" nType="-99" /><Node pos="r" depth="8" NCoef="0" IVar="39" Cut="2.5471065" cType="1" res="0.0e+00" rms="0.0e+00" purity="0.0e+00" nType="0"><Node pos="l" depth="9" NCoef="0" IVar="-1" Cut="0.0e+00" cType="1" res="-0.0808109045" rms="0.0e+00" purity="0.0e+00" nType="-99" /><Node pos="r" depth="9" NCoef="0" IVar="-1" Cut="0.0e+00" cType="1" res="0.0219646059" rms="0.0e+00" purity="0.0e+00" nType="-99" /></Node></Node><Node pos="r" depth="7" NCoef="0" IVar="-1" Cut="0.0e+00" cType="1" res="0.0293716919" rms="0.0e+00" purity="0.0e+00" nType="-99" /></Node></Node><Node pos="r" depth="5" NCoef="0" IVar="-1" Cut="0.0e+00" cType="1" res="0.087154679" rms="0.0e+00" purity="0.0e+00" nType="-99" /></Node></Node><Node pos="r" depth="3" NCoef="0" IVar="-1" Cut="0.0e+00" cType="1" res="0.14266178" rms="0.0e+00" purity="0.0e+00" nType="-99" /></Node><Node pos="r" depth="2" NCoef="0" IVar="-1" Cut="0.0e+00" cType="1" res="0.176106289" rms="0.0e+00" purity="0.0e+00" nType="-99" /></Node><Node pos="r" depth="1" NCoef="0" IVar="-1" Cut="0.0e+00" cType="1" res="0.234257489" rms="0.0e+00" purity="0.0e+00" nType="-99" /></Node></BinaryTree><BinaryTree type="DecisionTree" boostWeight="1.0e+00" itree="5"><Node pos="s" depth="0" NCoef="0" IVar="7" Cut="0.647477388" cType="1" res="0.0e+00" rms="0.0e+00" purity="0.0e+00" nType="0"><Node pos="l" depth="1" NCoef="0" IVar="40" Cut="3.15275431" cType="1" res="0.0e+00" rms="0.0e+00" purity="0.0e+00" nType="0"><Node pos="l" depth="2" NCoef="0" IVar="38" Cut="2.81044006" cType="1" res="0.0e+00" rms="0.0e+00" purity="0.0e+00" nType="0"><Node pos="l" depth="3" NCoef="0" IVar="8" Cut="80.8235168" cType="1" res="0.0e+00" rms="0.0e+00" purity="0.0e+00" nType="0"><Node pos="l" depth="4" NCoef="0" IVar="3" Cut="0.688877821" cType="1" res="0.0e+00" rms="0.0e+00" purity="0.0e+00" nType="0"><Node pos="l" depth="5" NCoef="0" IVar="7" Cut="0.472023666" cType="1" res="0.0e+00" rms="0.0e+00" purity="0.0e+00" nType="0"><Node pos="l" depth="6" NCoef="0" IVar="-1" Cut="0.0e+00" cType="1" res="-0.124190658" rms="0.0e+00" purity="0.0e+00" nType="-99" /><Node pos="r" depth="6" NCoef="0" IVar="-1" Cut="0.0e+00" cType="1" res="-0.0305070523" rms="0.0e+00" purity="0.0e+00" nType="-99" /></Node><Node pos="r" depth="5" NCoef="0" IVar="33" Cut="-0.714733601" cType="1" res="0.0e+00" rms="0.0e+00" purity="0.0e+00" nType="0"><Node pos="l" depth="6" NCoef="0" IVar="19" Cut="146.117996" cType="1" res="0.0e+00" rms="0.0e+00" purity="0.0e+00" nType="0"><Node pos="l" depth="7" NCoef="0" IVar="33" Cut="-0.946756423" cType="1" res="0.0e+00" rms="0.0e+00" purity="0.0e+00" nType="0"><Node pos="l" depth="8" NCoef="0" IVar="34" Cut="-0.946471393" cType="1" res="0.0e+00" rms="0.0e+00" purity="0.0e+00" nType="0"><Node pos="l" depth="9" NCoef="0" IVar="-1" Cut="0.0e+00" cType="1" res="-0.109885775" rms="0.0e+00" purity="0.0e+00" nType="-99" /><Node pos="r" depth="9" NCoef="0" IVar="-1" Cut="0.0e+00" cType="1" res="-0.00928524602" rms="0.0e+00" purity="0.0e+00" nType="-99" /></Node><Node pos="r" depth="8" NCoef="0" IVar="-1" Cut="0.0e+00" cType="1" res="-0.00567095727" rms="0.0e+00" purity="0.0e+00" nType="-99" /></Node><Node pos="r" depth="7" NCoef="0" IVar="-1" Cut="0.0e+00" cType="1" res="0.0133305714" rms="0.0e+00" purity="0.0e+00" nType="-99" /></Node><Node pos="r" depth="6" NCoef="0" IVar="-1" Cut="0.0e+00" cType="1" res="0.0428620912" rms="0.0e+00" purity="0.0e+00" nType="-99" /></Node></Node><Node pos="r" depth="4" NCoef="0" IVar="32" Cut="0.136634558" cType="1" res="0.0e+00" rms="0.0e+00" purity="0.0e+00" nType="0"><Node pos="l" depth="5" NCoef="0" IVar="-1" Cut="0.0e+00" cType="1" res="0.0807851553" rms="0.0e+00" purity="0.0e+00" nType="-99" /><Node pos="r" depth="5" NCoef="0" IVar="-1" Cut="0.0e+00" cType="1" res="-0.019389011" rms="0.0e+00" purity="0.0e+00" nType="-99" /></Node></Node><Node pos="r" depth="3" NCoef="0" IVar="-1" Cut="0.0e+00" cType="1" res="0.096178405" rms="0.0e+00" purity="0.0e+00" nType="-99" /></Node><Node pos="r" depth="2" NCoef="0" IVar="-1" Cut="0.0e+00" cType="1" res="0.11331217" rms="0.0e+00" purity="0.0e+00" nType="-99" /></Node><Node pos="r" depth="1" NCoef="0" IVar="7" Cut="0.767211258" cType="1" res="0.0e+00" rms="0.0e+00" purity="0.0e+00" nType="0"><Node pos="l" depth="2" NCoef="0" IVar="-1" Cut="0.0e+00" cType="1" res="0.0467247441" rms="0.0e+00" purity="0.0e+00" nType="-99" /><Node pos="r" depth="2" NCoef="0" IVar="-1" Cut="0.0e+00" cType="1" res="0.172924519" rms="0.0e+00" purity="0.0e+00" nType="-99" /></Node></Node></BinaryTree><BinaryTree type="DecisionTree" boostWeight="1.0e+00" itree="6"><Node pos="s" depth="0" NCoef="0" IVar="3" Cut="2.32608223" cType="1" res="0.0e+00" rms="0.0e+00" purity="0.0e+00" nType="0"><Node pos="l" depth="1" NCoef="0" IVar="39" Cut="3.3044498" cType="1" res="0.0e+00" rms="0.0e+00" purity="0.0e+00" nType="0"><Node pos="l" depth="2" NCoef="0" IVar="37" Cut="3.27603436" cType="1" res="0.0e+00" rms="0.0e+00" purity="0.0e+00" nType="0"><Node pos="l" depth="3" NCoef="0" IVar="40" Cut="3.16257429" cType="1" res="0.0e+00" rms="0.0e+00" purity="0.0e+00" nType="0"><Node pos="l" depth="4" NCoef="0" IVar="19" Cut="195.980621" cType="1" res="0.0e+00" rms="0.0e+00" purity="0.0e+00" nType="0"><Node pos="l" depth="5" NCoef="0" IVar="33" Cut="-0.959650159" cType="1" res="0.0e+00" rms="0.0e+00" purity="0.0e+00" nType="0"><Node pos="l" depth="6" NCoef="0" IVar="34" Cut="-0.897866488" cType="1" res="0.0e+00" rms="0.0e+00" purity="0.0e+00" nType="0"><Node pos="l" depth="7" NCoef="0" IVar="-1" Cut="0.0e+00" cType="1" res="-0.114006892" rms="0.0e+00" purity="0.0e+00" nType="-99" /><Node pos="r" depth="7" NCoef="0" IVar="37" Cut="2.52855682" cType="1" res="0.0e+00" rms="0.0e+00" purity="0.0e+00" nType="0"><Node pos="l" depth="8" NCoef="0" IVar="-1" Cut="0.0e+00" cType="1" res="-0.0514125191" rms="0.0e+00" purity="0.0e+00" nType="-99" /><Node pos="r" depth="8" NCoef="0" IVar="-1" Cut="0.0e+00" cType="1" res="0.0458547659" rms="0.0e+00" purity="0.0e+00" nType="-99" /></Node></Node><Node pos="r" depth="6" NCoef="0" IVar="39" Cut="2.89692593" cType="1" res="0.0e+00" rms="0.0e+00" purity="0.0e+00" nType="0"><Node pos="l" depth="7" NCoef="0" IVar="8" Cut="26.5349464" cType="1" res="0.0e+00" rms="0.0e+00" purity="0.0e+00" nType="0"><Node pos="l" depth="8" NCoef="0" IVar="-1" Cut="0.0e+00" cType="1" res="0.0493666753" rms="0.0e+00" purity="0.0e+00" nType="-99" /><Node pos="r" depth="8" NCoef="0" IVar="3" Cut="0.856294394" cType="1" res="0.0e+00" rms="0.0e+00" purity="0.0e+00" nType="0"><Node pos="l" depth="9" NCoef="0" IVar="-1" Cut="0.0e+00" cType="1" res="-0.0937641785" rms="0.0e+00" purity="0.0e+00" nType="-99" /><Node pos="r" depth="9" NCoef="0" IVar="-1" Cut="0.0e+00" cType="1" res="-0.0330664702" rms="0.0e+00" purity="0.0e+00" nType="-99" /></Node></Node><Node pos="r" depth="7" NCoef="0" IVar="-1" Cut="0.0e+00" cType="1" res="0.0986907482" rms="0.0e+00" purity="0.0e+00" nType="-99" /></Node></Node><Node pos="r" depth="5" NCoef="0" IVar="-1" Cut="0.0e+00" cType="1" res="0.0368333608" rms="0.0e+00" purity="0.0e+00" nType="-99" /></Node><Node pos="r" depth="4" NCoef="0" IVar="-1" Cut="0.0e+00" cType="1" res="0.0490350537" rms="0.0e+00" purity="0.0e+00" nType="-99" /></Node><Node pos="r" depth="3" NCoef="0" IVar="-1" Cut="0.0e+00" cType="1" res="0.120709233" rms="0.0e+00" purity="0.0e+00" nType="-99" /></Node><Node pos="r" depth="2" NCoef="0" IVar="-1" Cut="0.0e+00" cType="1" res="0.131374195" rms="0.0e+00" purity="0.0e+00" nType="-99" /></Node><Node pos="r" depth="1" NCoef="0" IVar="-1" Cut="0.0e+00" cType="1" res="0.170813099" rms="0.0e+00" purity="0.0e+00" nType="-99" /></Node></BinaryTree><BinaryTree type="DecisionTree" boostWeight="1.0e+00" itree="7"><Node pos="s" depth="0" NCoef="0" IVar="3" Cut="0.557913363" cType="1" res="0.0e+00" rms="0.0e+00" purity="0.0e+00" nType="0"><Node pos="l" depth="1" NCoef="0" IVar="-1" Cut="0.0e+00" cType="1" res="-0.0753648505" rms="0.0e+00" purity="0.0e+00" nType="-99" /><Node pos="r" depth="1" NCoef="0" IVar="40" Cut="2.83592963" cType="1" res="0.0e+00" rms="0.0e+00" purity="0.0e+00" nType="0"><Node pos="l" depth="2" NCoef="0" IVar="38" Cut="2.817698" cType="1" res="0.0e+00" rms="0.0e+00" purity="0.0e+00" nType="0"><Node pos="l" depth="3" NCoef="0" IVar="33" Cut="-0.986881673" cType="1" res="0.0e+00" rms="0.0e+00" purity="0.0e+00" nType="0"><Node pos="l" depth="4" NCoef="0" IVar="36" Cut="-0.665897727" cType="1" res="0.0e+00" rms="0.0e+00" purity="0.0e+00" nType="0"><Node pos="l" depth="5" NCoef="0" IVar="-1" Cut="0.0e+00" cType="1" res="-0.0741185769" rms="0.0e+00" purity="0.0e+00" nType="-99" /><Node pos="r" depth="5" NCoef="0" IVar="38" Cut="1.43495321" cType="1" res="0.0e+00" rms="0.0e+00" purity="0.0e+00" nType="0"><Node pos="l" depth="6" NCoef="0" IVar="-1" Cut="0.0e+00" cType="1" res="-0.0497200936" rms="0.0e+00" purity="0.0e+00" nType="-99" /><Node pos="r" depth="6" NCoef="0" IVar="36" Cut="-0.221760362" cType="1" res="0.0e+00" rms="0.0e+00" purity="0.0e+00" nType="0"><Node pos="l" depth="7" NCoef="0" IVar="-1" Cut="0.0e+00" cType="1" res="-0.0121115567" rms="0.0e+00" purity="0.0e+00" nType="-99" /><Node pos="r" depth="7" NCoef="0" IVar="-1" Cut="0.0e+00" cType="1" res="0.070573695" rms="0.0e+00" purity="0.0e+00" nType="-99" /></Node></Node></Node><Node pos="r" depth="4" NCoef="0" IVar="39" Cut="2.97706461" cType="1" res="0.0e+00" rms="0.0e+00" purity="0.0e+00" nType="0"><Node pos="l" depth="5" NCoef="0" IVar="8" Cut="35.7701645" cType="1" res="0.0e+00" rms="0.0e+00" purity="0.0e+00" nType="0"><Node pos="l" depth="6" NCoef="0" IVar="-1" Cut="0.0e+00" cType="1" res="0.0342666879" rms="0.0e+00" purity="0.0e+00" nType="-99" /><Node pos="r" depth="6" NCoef="0" IVar="33" Cut="-0.759606481" cType="1" res="0.0e+00" rms="0.0e+00" purity="0.0e+00" nType="0"><Node pos="l" depth="7" NCoef="0" IVar="-1" Cut="0.0e+00" cType="1" res="-0.0589727834" rms="0.0e+00" purity="0.0e+00" nType="-99" /><Node pos="r" depth="7" NCoef="0" IVar="-1" Cut="0.0e+00" cType="1" res="-0.0118516572" rms="0.0e+00" purity="0.0e+00" nType="-99" /></Node></Node><Node pos="r" depth="5" NCoef="0" IVar="-1" Cut="0.0e+00" cType="1" res="0.0874851644" rms="0.0e+00" purity="0.0e+00" nType="-99" /></Node></Node><Node pos="r" depth="3" NCoef="0" IVar="37" Cut="2.96622944" cType="1" res="0.0e+00" rms="0.0e+00" purity="0.0e+00" nType="0"><Node pos="l" depth="4" NCoef="0" IVar="-1" Cut="0.0e+00" cType="1" res="0.0176713616" rms="0.0e+00" purity="0.0e+00" nType="-99" /><Node pos="r" depth="4" NCoef="0" IVar="-1" Cut="0.0e+00" cType="1" res="0.143563777" rms="0.0e+00" purity="0.0e+00" nType="-99" /></Node></Node><Node pos="r" depth="2" NCoef="0" IVar="39" Cut="2.8921361" cType="1" res="0.0e+00" rms="0.0e+00" purity="0.0e+00" nType="0"><Node pos="l" depth="3" NCoef="0" IVar="-1" Cut="0.0e+00" cType="1" res="0.016111562" rms="0.0e+00" purity="0.0e+00" nType="-99" /><Node pos="r" depth="3" NCoef="0" IVar="-1" Cut="0.0e+00" cType="1" res="0.166897148" rms="0.0e+00" purity="0.0e+00" nType="-99" /></Node></Node></Node></BinaryTree><BinaryTree type="DecisionTree" boostWeight="1.0e+00" itree="8"><Node pos="s" depth="0" NCoef="0" IVar="11" Cut="171.51767" cType="1" res="0.0e+00" rms="0.0e+00" purity="0.0e+00" nType="0"><Node pos="l" depth="1" NCoef="0" IVar="38" Cut="3.07392454" cType="1" res="0.0e+00" rms="0.0e+00" purity="0.0e+00" nType="0"><Node pos="l" depth="2" NCoef="0" IVar="3" Cut="0.638064563" cType="1" res="0.0e+00" rms="0.0e+00" purity="0.0e+00" nType="0"><Node pos="l" depth="3" NCoef="0" IVar="32" Cut="-0.75950098" cType="1" res="0.0e+00" rms="0.0e+00" purity="0.0e+00" nType="0"><Node pos="l" depth="4" NCoef="0" IVar="-1" Cut="0.0e+00" cType="1" res="-0.0758368298" rms="0.0e+00" purity="0.0e+00" nType="-99" /><Node pos="r" depth="4" NCoef="0" IVar="7" Cut="0.415378183" cType="1" res="0.0e+00" rms="0.0e+00" purity="0.0e+00" nType="0"><Node pos="l" depth="5" NCoef="0" IVar="-1" Cut="0.0e+00" cType="1" res="-0.0403277725" rms="0.0e+00" purity="0.0e+00" nType="-99" /><Node pos="r" depth="5" NCoef="0" IVar="-1" Cut="0.0e+00" cType="1" res="0.00902504381" rms="0.0e+00" purity="0.0e+00" nType="-99" /></Node></Node><Node pos="r" depth="3" NCoef="0" IVar="33" Cut="-0.696552873" cType="1" res="0.0e+00" rms="0.0e+00" purity="0.0e+00" nType="0"><Node pos="l" depth="4" NCoef="0" IVar="7" Cut="0.766556025" cType="1" res="0.0e+00" rms="0.0e+00" purity="0.0e+00" nType="0"><Node pos="l" depth="5" NCoef="0" IVar="16" Cut="106.56916" cType="1" res="0.0e+00" rms="0.0e+00" purity="0.0e+00" nType="0"><Node pos="l" depth="6" NCoef="0" IVar="35" Cut="-0.506047368" cType="1" res="0.0e+00" rms="0.0e+00" purity="0.0e+00" nType="0"><Node pos="l" depth="7" NCoef="0" IVar="34" Cut="-0.946502328" cType="1" res="0.0e+00" rms="0.0e+00" purity="0.0e+00" nType="0"><Node pos="l" depth="8" NCoef="0" IVar="-1" Cut="0.0e+00" cType="1" res="-0.0895495787" rms="0.0e+00" purity="0.0e+00" nType="-99" /><Node pos="r" depth="8" NCoef="0" IVar="-1" Cut="0.0e+00" cType="1" res="0.00204063323" rms="0.0e+00" purity="0.0e+00" nType="-99" /></Node><Node pos="r" depth="7" NCoef="0" IVar="40" Cut="1.78425896" cType="1" res="0.0e+00" rms="0.0e+00" purity="0.0e+00" nType="0"><Node pos="l" depth="8" NCoef="0" IVar="-1" Cut="0.0e+00" cType="1" res="-0.0322414935" rms="0.0e+00" purity="0.0e+00" nType="-99" /><Node pos="r" depth="8" NCoef="0" IVar="-1" Cut="0.0e+00" cType="1" res="0.0350341834" rms="0.0e+00" purity="0.0e+00" nType="-99" /></Node></Node><Node pos="r" depth="6" NCoef="0" IVar="-1" Cut="0.0e+00" cType="1" res="0.0335649438" rms="0.0e+00" purity="0.0e+00" nType="-99" /></Node><Node pos="r" depth="5" NCoef="0" IVar="-1" Cut="0.0e+00" cType="1" res="0.0417658612" rms="0.0e+00" purity="0.0e+00" nType="-99" /></Node><Node pos="r" depth="4" NCoef="0" IVar="-1" Cut="0.0e+00" cType="1" res="0.0497410484" rms="0.0e+00" purity="0.0e+00" nType="-99" /></Node></Node><Node pos="r" depth="2" NCoef="0" IVar="-1" Cut="0.0e+00" cType="1" res="0.103633247" rms="0.0e+00" purity="0.0e+00" nType="-99" /></Node><Node pos="r" depth="1" NCoef="0" IVar="39" Cut="3.12846136" cType="1" res="0.0e+00" rms="0.0e+00" purity="0.0e+00" nType="0"><Node pos="l" depth="2" NCoef="0" IVar="-1" Cut="0.0e+00" cType="1" res="0.0186128728" rms="0.0e+00" purity="0.0e+00" nType="-99" /><Node pos="r" depth="2" NCoef="0" IVar="-1" Cut="0.0e+00" cType="1" res="0.139649302" rms="0.0e+00" purity="0.0e+00" nType="-99" /></Node></Node></BinaryTree><BinaryTree type="DecisionTree" boostWeight="1.0e+00" itree="9"><Node pos="s" depth="0" NCoef="0" IVar="40" Cut="3.26569748" cType="1" res="0.0e+00" rms="0.0e+00" purity="0.0e+00" nType="0"><Node pos="l" depth="1" NCoef="0" IVar="37" Cut="3.13401222" cType="1" res="0.0e+00" rms="0.0e+00" purity="0.0e+00" nType="0"><Node pos="l" depth="2" NCoef="0" IVar="8" Cut="160.001968" cType="1" res="0.0e+00" rms="0.0e+00" purity="0.0e+00" nType="0"><Node pos="l" depth="3" NCoef="0" IVar="35" Cut="-0.690542102" cType="1" res="0.0e+00" rms="0.0e+00" purity="0.0e+00" nType="0"><Node pos="l" depth="4" NCoef="0" IVar="34" Cut="-0.763228595" cType="1" res="0.0e+00" rms="0.0e+00" purity="0.0e+00" nType="0"><Node pos="l" depth="5" NCoef="0" IVar="37" Cut="2.77690887" cType="1" res="0.0e+00" rms="0.0e+00" purity="0.0e+00" nType="0"><Node pos="l" depth="6" NCoef="0" IVar="45" Cut="2.13739681" cType="1" res="0.0e+00" rms="0.0e+00" purity="0.0e+00" nType="0"><Node pos="l" depth="7" NCoef="0" IVar="-1" Cut="0.0e+00" cType="1" res="-0.0950107872" rms="0.0e+00" purity="0.0e+00" nType="-99" /><Node pos="r" depth="7" NCoef="0" IVar="-1" Cut="0.0e+00" cType="1" res="-0.0264611281" rms="0.0e+00" purity="0.0e+00" nType="-99" /></Node><Node pos="r" depth="6" NCoef="0" IVar="34" Cut="-0.963184595" cType="1" res="0.0e+00" rms="0.0e+00" purity="0.0e+00" nType="0"><Node pos="l" depth="7" NCoef="0" IVar="-1" Cut="0.0e+00" cType="1" res="-0.0527236685" rms="0.0e+00" purity="0.0e+00" nType="-99" /><Node pos="r" depth="7" NCoef="0" IVar="-1" Cut="0.0e+00" cType="1" res="0.0351933613" rms="0.0e+00" purity="0.0e+00" nType="-99" /></Node></Node><Node pos="r" depth="5" NCoef="0" IVar="37" Cut="2.27016544" cType="1" res="0.0e+00" rms="0.0e+00" purity="0.0e+00" nType="0"><Node pos="l" depth="6" NCoef="0" IVar="-1" Cut="0.0e+00" cType="1" res="-0.0190366674" rms="0.0e+00" purity="0.0e+00" nType="-99" /><Node pos="r" depth="6" NCoef="0" IVar="-1" Cut="0.0e+00" cType="1" res="0.0588877425" rms="0.0e+00" purity="0.0e+00" nType="-99" /></Node></Node><Node pos="r" depth="4" NCoef="0" IVar="40" Cut="2.36841726" cType="1" res="0.0e+00" rms="0.0e+00" purity="0.0e+00" nType="0"><Node pos="l" depth="5" NCoef="0" IVar="33" Cut="-0.964845359" cType="1" res="0.0e+00" rms="0.0e+00" purity="0.0e+00" nType="0"><Node pos="l" depth="6" NCoef="0" IVar="-1" Cut="0.0e+00" cType="1" res="-0.06626416" rms="0.0e+00" purity="0.0e+00" nType="-99" /><Node pos="r" depth="6" NCoef="0" IVar="39" Cut="2.83674955" cType="1" res="0.0e+00" rms="0.0e+00" purity="0.0e+00" nType="0"><Node pos="l" depth="7" NCoef="0" IVar="32" Cut="-0.625421286" cType="1" res="0.0e+00" rms="0.0e+00" purity="0.0e+00" nType="0"><Node pos="l" depth="8" NCoef="0" IVar="-1" Cut="0.0e+00" cType="1" res="-0.0541337654" rms="0.0e+00" purity="0.0e+00" nType="-99" /><Node pos="r" depth="8" NCoef="0" IVar="-1" Cut="0.0e+00" cType="1" res="0.0189266521" rms="0.0e+00" purity="0.0e+00" nType="-99" /></Node><Node pos="r" depth="7" NCoef="0" IVar="-1" Cut="0.0e+00" cType="1" res="0.0506032892" rms="0.0e+00" purity="0.0e+00" nType="-99" /></Node></Node><Node pos="r" depth="5" NCoef="0" IVar="-1" Cut="0.0e+00" cType="1" res="0.0893155113" rms="0.0e+00" purity="0.0e+00" nType="-99" /></Node></Node><Node pos="r" depth="3" NCoef="0" IVar="-1" Cut="0.0e+00" cType="1" res="0.0738275126" rms="0.0e+00" purity="0.0e+00" nType="-99" /></Node><Node pos="r" depth="2" NCoef="0" IVar="-1" Cut="0.0e+00" cType="1" res="0.0840487927" rms="0.0e+00" purity="0.0e+00" nType="-99" /></Node><Node pos="r" depth="1" NCoef="0" IVar="-1" Cut="0.0e+00" cType="1" res="0.110313557" rms="0.0e+00" purity="0.0e+00" nType="-99" /></Node></BinaryTree></Weights></MethodSetup>