<MethodSetup Method="BDT::BDT"><Variables NVar="49"><Variable VarIndex="0" Type="F" Expression="pho1_eta" Label="pho1_eta" Title="pho1_eta" Unit="" Internal="pho1_eta" Min="0.0e+00" Max="0.0e+00" /><Variable VarIndex="1" Type="F" Expression="pho1_phi" Label="pho1_phi" Title="pho1_phi" Unit="" Internal="pho1_phi" Min="0.0e+00" Max="0.0e+00" /><Variable VarIndex="2" Type="F" Expression="pho1_idmva" Label="pho1_idmva" Title="pho1_idmva" Unit="" Internal="pho1_idmva" Min="0.0e+00" Max="0.0e+00" /><Variable VarIndex="3" Type="F" Expression="pho1_ptOverMgg" Label="pho1_ptOverMgg" Title="pho1_ptOverMgg" Unit="" Internal="pho1_ptOverMgg" Min="0.0e+00" Max="0.0e+00" /><Variable VarIndex="4" Type="F" Expression="pho2_eta" Label="pho2_eta" Title="pho2_eta" Unit="" Internal="pho2_eta" Min="0.0e+00" Max="0.0e+00" /><Variable VarIndex="5" Type="F" Expression="pho2_phi" Label="pho2_phi" Title="pho2_phi" Unit="" Internal="pho2_phi" Min="0.0e+00" Max="0.0e+00" /><Variable VarIndex="6" Type="F" Expression="pho2_idmva" Label="pho2_idmva" Title="pho2_idmva" Unit="" Internal="pho2_idmva" Min="0.0e+00" Max="0.0e+00" /><Variable VarIndex="7" Type="F" Expression="pho2_ptOverMgg" Label="pho2_ptOverMgg" Title="pho2_ptOverMgg" Unit="" Internal="pho2_ptOverMgg" Min="0.0e+00" Max="0.0e+00" /><Variable VarIndex="8" Type="F" Expression="mu1_pt" Label="mu1_pt" Title="mu1_pt" Unit="" Internal="mu1_pt" Min="0.0e+00" Max="0.0e+00" /><Variable VarIndex="9" Type="F" Expression="mu1_phi" Label="mu1_phi" Title="mu1_phi" Unit="" Internal="mu1_phi" Min="0.0e+00" Max="0.0e+00" /><Variable VarIndex="10" Type="F" Expression="mu1_eta" Label="mu1_eta" Title="mu1_eta" Unit="" Internal="mu1_eta" Min="0.0e+00" Max="0.0e+00" /><Variable VarIndex="11" Type="F" Expression="mu1_energy" Label="mu1_energy" Title="mu1_energy" Unit="" Internal="mu1_energy" Min="0.0e+00" Max="0.0e+00" /><Variable VarIndex="12" Type="F" Expression="mu2_pt" Label="mu2_pt" Title="mu2_pt" Unit="" Internal="mu2_pt" Min="0.0e+00" Max="0.0e+00" /><Variable VarIndex="13" Type="F" Expression="mu2_phi" Label="mu2_phi" Title="mu2_phi" Unit="" Internal="mu2_phi" Min="0.0e+00" Max="0.0e+00" /><Variable VarIndex="14" Type="F" Expression="mu2_eta" Label="mu2_eta" Title="mu2_eta" Unit="" Internal="mu2_eta" Min="0.0e+00" Max="0.0e+00" /><Variable VarIndex="15" Type="F" Expression="mu2_energy" Label="mu2_energy" Title="mu2_energy" Unit="" Internal="mu2_energy" Min="0.0e+00" Max="0.0e+00" /><Variable VarIndex="16" Type="F" Expression="ele1_pt" Label="ele1_pt" Title="ele1_pt" Unit="" Internal="ele1_pt" Min="0.0e+00" Max="0.0e+00" /><Variable VarIndex="17" Type="F" Expression="ele1_phi" Label="ele1_phi" Title="ele1_phi" Unit="" Internal="ele1_phi" Min="0.0e+00" Max="0.0e+00" /><Variable VarIndex="18" Type="F" Expression="ele1_eta" Label="ele1_eta" Title="ele1_eta" Unit="" Internal="ele1_eta" Min="0.0e+00" Max="0.0e+00" /><Variable VarIndex="19" Type="F" Expression="ele1_energy" Label="ele1_energy" Title="ele1_energy" Unit="" Internal="ele1_energy" Min="0.0e+00" Max="0.0e+00" /><Variable VarIndex="20" Type="F" Expression="ele2_pt" Label="ele2_pt" Title="ele2_pt" Unit="" Internal="ele2_pt" Min="0.0e+00" Max="0.0e+00" /><Variable VarIndex="21" Type="F" Expression="ele2_phi" Label="ele2_phi" Title="ele2_phi" Unit="" Internal="ele2_phi" Min="0.0e+00" Max="0.0e+00" /><Variable VarIndex="22" Type="F" Expression="ele2_eta" Label="ele2_eta" Title="ele2_eta" Unit="" Internal="ele2_eta" Min="0.0e+00" Max="0.0e+00" /><Variable VarIndex="23" Type="F" Expression="ele2_energy" Label="ele2_energy" Title="ele2_energy" Unit="" Internal="ele2_energy" Min="0.0e+00" Max="0.0e+00" /><Variable VarIndex="24" Type="F" Expression="jet1_pt" Label="jet1_pt" Title="jet1_pt" Unit="" Internal="jet1_pt" Min="0.0e+00" Max="0.0e+00" /><Variable VarIndex="25" Type="F" Expression="jet1_phi" Label="jet1_phi" Title="jet1_phi" Unit="" Internal="jet1_phi" Min="0.0e+00" Max="0.0e+00" /><Variable VarIndex="26" Type="F" Expression="jet1_eta" Label="jet1_eta" Title="jet1_eta" Unit="" Internal="jet1_eta" Min="0.0e+00" Max="0.0e+00" /><Variable VarIndex="27" Type="F" Expression="jet1_energy" Label="jet1_energy" Title="jet1_energy" Unit="" Internal="jet1_energy" Min="0.0e+00" Max="0.0e+00" /><Variable VarIndex="28" Type="F" Expression="jet2_pt" Label="jet2_pt" Title="jet2_pt" Unit="" Internal="jet2_pt" Min="0.0e+00" Max="0.0e+00" /><Variable VarIndex="29" Type="F" Expression="jet2_phi" Label="jet2_phi" Title="jet2_phi" Unit="" Internal="jet2_phi" Min="0.0e+00" Max="0.0e+00" /><Variable VarIndex="30" Type="F" Expression="jet2_eta" Label="jet2_eta" Title="jet2_eta" Unit="" Internal="jet2_eta" Min="0.0e+00" Max="0.0e+00" /><Variable VarIndex="31" Type="F" Expression="jet2_energy" Label="jet2_energy" Title="jet2_energy" Unit="" Internal="jet2_energy" Min="0.0e+00" Max="0.0e+00" /><Variable VarIndex="32" Type="F" Expression="cosPhiGG" Label="cosPhiGG" Title="cosPhiGG" Unit="" Internal="cosPhiGG" Min="0.0e+00" Max="0.0e+00" /><Variable VarIndex="33" Type="F" Expression="cosPhiG1_Mu1" Label="cosPhiG1_Mu1" Title="cosPhiG1_Mu1" Unit="" Internal="cosPhiG1_Mu1" Min="0.0e+00" Max="0.0e+00" /><Variable VarIndex="34" Type="F" Expression="cosPhiG1_Ele1" Label="cosPhiG1_Ele1" Title="cosPhiG1_Ele1" Unit="" Internal="cosPhiG1_Ele1" Min="0.0e+00" Max="0.0e+00" /><Variable VarIndex="35" Type="F" Expression="cosPhiG2_Mu1" Label="cosPhiG2_Mu1" Title="cosPhiG2_Mu1" Unit="" Internal="cosPhiG2_Mu1" Min="0.0e+00" Max="0.0e+00" /><Variable VarIndex="36" Type="F" Expression="cosPhiG2_Ele1" Label="cosPhiG2_Ele1" Title="cosPhiG2_Ele1" Unit="" Internal="cosPhiG2_Ele1" Min="0.0e+00" Max="0.0e+00" /><Variable VarIndex="37" Type="F" Expression="dR_Pho1Ele1_wh" Label="dR_Pho1Ele1_wh" Title="dR_Pho1Ele1_wh" Unit="" Internal="dR_Pho1Ele1_wh" Min="0.0e+00" Max="0.0e+00" /><Variable VarIndex="38" Type="F" Expression="dR_Pho2Ele1_wh" Label="dR_Pho2Ele1_wh" Title="dR_Pho2Ele1_wh" Unit="" Internal="dR_Pho2Ele1_wh" Min="0.0e+00" Max="0.0e+00" /><Variable VarIndex="39" Type="F" Expression="dR_Pho1Mu1_wh" Label="dR_Pho1Mu1_wh" Title="dR_Pho1Mu1_wh" Unit="" Internal="dR_Pho1Mu1_wh" Min="0.0e+00" Max="0.0e+00" /><Variable VarIndex="40" Type="F" Expression="dR_Pho2Mu1_wh" Label="dR_Pho2Mu1_wh" Title="dR_Pho2Mu1_wh" Unit="" Internal="dR_Pho2Mu1_wh" Min="0.0e+00" Max="0.0e+00" /><Variable VarIndex="41" Type="F" Expression="dR_Pho1Jet1_wh" Label="dR_Pho1Jet1_wh" Title="dR_Pho1Jet1_wh" Unit="" Internal="dR_Pho1Jet1_wh" Min="0.0e+00" Max="0.0e+00" /><Variable VarIndex="42" Type="F" Expression="dR_Pho2Jet1_wh" Label="dR_Pho2Jet1_wh" Title="dR_Pho2Jet1_wh" Unit="" Internal="dR_Pho2Jet1_wh" Min="0.0e+00" Max="0.0e+00" /><Variable VarIndex="43" Type="F" Expression="dR_Pho1Jet2_wh" Label="dR_Pho1Jet2_wh" Title="dR_Pho1Jet2_wh" Unit="" Internal="dR_Pho1Jet2_wh" Min="0.0e+00" Max="0.0e+00" /><Variable VarIndex="44" Type="F" Expression="dR_Pho2Jet2_wh" Label="dR_Pho2Jet2_wh" Title="dR_Pho2Jet2_wh" Unit="" Internal="dR_Pho2Jet2_wh" Min="0.0e+00" Max="0.0e+00" /><Variable VarIndex="45" Type="F" Expression="dR_Mu1Jet1_wh" Label="dR_Mu1Jet1_wh" Title="dR_Mu1Jet1_wh" Unit="" Internal="dR_Mu1Jet1_wh" Min="0.0e+00" Max="0.0e+00" /><Variable VarIndex="46" Type="F" Expression="dR_Mu1Jet2_wh" Label="dR_Mu1Jet2_wh" Title="dR_Mu1Jet2_wh" Unit="" Internal="dR_Mu1Jet2_wh" Min="0.0e+00" Max="0.0e+00" /><Variable VarIndex="47" Type="F" Expression="dR_Ele1Jet1_wh" Label="dR_Ele1Jet1_wh" Title="dR_Ele1Jet1_wh" Unit="" Internal="dR_Ele1Jet1_wh" Min="0.0e+00" Max="0.0e+00" /><Variable VarIndex="48" Type="F" Expression="dR_Ele1Jet2_wh" Label="dR_Ele1Jet2_wh" Title="dR_Ele1Jet2_wh" Unit="" Internal="dR_Ele1Jet2_wh" Min="0.0e+00" Max="0.0e+00" /></Variables><GeneralInfo><Info name="Creator" value="xgboost2TMVA" /><Info name="AnalysisType" value="Classification" /></GeneralInfo><Options><Option name="NodePurityLimit" modified="No">5.00e-01</Option><Option name="BoostType" modified="Yes">Grad</Option></Options><Weights NTrees="10" AnalysisType="1"><BinaryTree type="DecisionTree" boostWeight="1.0e+00" itree="0"><Node pos="s" depth="0" NCoef="0" IVar="3" Cut="1.05812478" cType="1" res="0.0e+00" rms="0.0e+00" purity="0.0e+00" nType="0"><Node pos="l" depth="1" NCoef="0" IVar="32" Cut="-0.0920660645" cType="1" res="0.0e+00" rms="0.0e+00" purity="0.0e+00" nType="0"><Node pos="l" depth="2" NCoef="0" IVar="39" Cut="3.1338675" cType="1" res="0.0e+00" rms="0.0e+00" purity="0.0e+00" nType="0"><Node pos="l" depth="3" NCoef="0" IVar="38" Cut="2.28569508" cType="1" res="0.0e+00" rms="0.0e+00" purity="0.0e+00" nType="0"><Node pos="l" depth="4" NCoef="0" IVar="8" Cut="67.1346283" cType="1" res="0.0e+00" rms="0.0e+00" purity="0.0e+00" nType="0"><Node pos="l" depth="5" NCoef="0" IVar="-1" Cut="0.0e+00" cType="1" res="-0.277144462" rms="0.0e+00" purity="0.0e+00" nType="-99" /><Node pos="r" depth="5" NCoef="0" IVar="-1" Cut="0.0e+00" cType="1" res="-0.0742377117" rms="0.0e+00" purity="0.0e+00" nType="-99" /></Node><Node pos="r" depth="4" NCoef="0" IVar="-1" Cut="0.0e+00" cType="1" res="-0.0429498442" rms="0.0e+00" purity="0.0e+00" nType="-99" /></Node><Node pos="r" depth="3" NCoef="0" IVar="-1" Cut="0.0e+00" cType="1" res="-0.00790243223" rms="0.0e+00" purity="0.0e+00" nType="-99" /></Node><Node pos="r" depth="2" NCoef="0" IVar="3" Cut="0.658254266" cType="1" res="0.0e+00" rms="0.0e+00" purity="0.0e+00" nType="0"><Node pos="l" depth="3" NCoef="0" IVar="-1" Cut="0.0e+00" cType="1" res="-0.063231647" rms="0.0e+00" purity="0.0e+00" nType="-99" /><Node pos="r" depth="3" NCoef="0" IVar="32" Cut="0.199006096" cType="1" res="0.0e+00" rms="0.0e+00" purity="0.0e+00" nType="0"><Node pos="l" depth="4" NCoef="0" IVar="-1" Cut="0.0e+00" cType="1" res="0.020431418" rms="0.0e+00" purity="0.0e+00" nType="-99" /><Node pos="r" depth="4" NCoef="0" IVar="-1" Cut="0.0e+00" cType="1" res="0.120132469" rms="0.0e+00" purity="0.0e+00" nType="-99" /></Node></Node></Node><Node pos="r" depth="1" NCoef="0" IVar="32" Cut="0.41503197" cType="1" res="0.0e+00" rms="0.0e+00" purity="0.0e+00" nType="0"><Node pos="l" depth="2" NCoef="0" IVar="-1" Cut="0.0e+00" cType="1" res="0.143657476" rms="0.0e+00" purity="0.0e+00" nType="-99" /><Node pos="r" depth="2" NCoef="0" IVar="-1" Cut="0.0e+00" cType="1" res="0.555406809" rms="0.0e+00" purity="0.0e+00" nType="-99" /></Node></Node></BinaryTree><BinaryTree type="DecisionTree" boostWeight="1.0e+00" itree="1"><Node pos="s" depth="0" NCoef="0" IVar="3" Cut="1.22068691" cType="1" res="0.0e+00" rms="0.0e+00" purity="0.0e+00" nType="0"><Node pos="l" depth="1" NCoef="0" IVar="3" Cut="0.779793918" cType="1" res="0.0e+00" rms="0.0e+00" purity="0.0e+00" nType="0"><Node pos="l" depth="2" NCoef="0" IVar="40" Cut="3.00305223" cType="1" res="0.0e+00" rms="0.0e+00" purity="0.0e+00" nType="0"><Node pos="l" depth="3" NCoef="0" IVar="37" Cut="2.96685362" cType="1" res="0.0e+00" rms="0.0e+00" purity="0.0e+00" nType="0"><Node pos="l" depth="4" NCoef="0" IVar="7" Cut="0.516234398" cType="1" res="0.0e+00" rms="0.0e+00" purity="0.0e+00" nType="0"><Node pos="l" depth="5" NCoef="0" IVar="-1" Cut="0.0e+00" cType="1" res="-0.186031282" rms="0.0e+00" purity="0.0e+00" nType="-99" /><Node pos="r" depth="5" NCoef="0" IVar="-1" Cut="0.0e+00" cType="1" res="-0.0378142558" rms="0.0e+00" purity="0.0e+00" nType="-99" /></Node><Node pos="r" depth="4" NCoef="0" IVar="-1" Cut="0.0e+00" cType="1" res="0.00546737388" rms="0.0e+00" purity="0.0e+00" nType="-99" /></Node><Node pos="r" depth="3" NCoef="0" IVar="-1" Cut="0.0e+00" cType="1" res="0.0203995463" rms="0.0e+00" purity="0.0e+00" nType="-99" /></Node><Node pos="r" depth="2" NCoef="0" IVar="7" Cut="0.402287304" cType="1" res="0.0e+00" rms="0.0e+00" purity="0.0e+00" nType="0"><Node pos="l" depth="3" NCoef="0" IVar="40" Cut="1.80956125" cType="1" res="0.0e+00" rms="0.0e+00" purity="0.0e+00" nType="0"><Node pos="l" depth="4" NCoef="0" IVar="38" Cut="1.18367028" cType="1" res="0.0e+00" rms="0.0e+00" purity="0.0e+00" nType="0"><Node pos="l" depth="5" NCoef="0" IVar="-1" Cut="0.0e+00" cType="1" res="-0.0821423605" rms="0.0e+00" purity="0.0e+00" nType="-99" /><Node pos="r" depth="5" NCoef="0" IVar="-1" Cut="0.0e+00" cType="1" res="0.0152643798" rms="0.0e+00" purity="0.0e+00" nType="-99" /></Node><Node pos="r" depth="4" NCoef="0" IVar="-1" Cut="0.0e+00" cType="1" res="0.034582492" rms="0.0e+00" purity="0.0e+00" nType="-99" /></Node><Node pos="r" depth="3" NCoef="0" IVar="-1" Cut="0.0e+00" cType="1" res="0.102648675" rms="0.0e+00" purity="0.0e+00" nType="-99" /></Node></Node><Node pos="r" depth="1" NCoef="0" IVar="3" Cut="1.46958518" cType="1" res="0.0e+00" rms="0.0e+00" purity="0.0e+00" nType="0"><Node pos="l" depth="2" NCoef="0" IVar="-1" Cut="0.0e+00" cType="1" res="0.109516323" rms="0.0e+00" purity="0.0e+00" nType="-99" /><Node pos="r" depth="2" NCoef="0" IVar="-1" Cut="0.0e+00" cType="1" res="0.395174354" rms="0.0e+00" purity="0.0e+00" nType="-99" /></Node></Node></BinaryTree><BinaryTree type="DecisionTree" boostWeight="1.0e+00" itree="2"><Node pos="s" depth="0" NCoef="0" IVar="3" Cut="1.22060239" cType="1" res="0.0e+00" rms="0.0e+00" purity="0.0e+00" nType="0"><Node pos="l" depth="1" NCoef="0" IVar="39" Cut="3.25683689" cType="1" res="0.0e+00" rms="0.0e+00" purity="0.0e+00" nType="0"><Node pos="l" depth="2" NCoef="0" IVar="37" Cut="3.15432262" cType="1" res="0.0e+00" rms="0.0e+00" purity="0.0e+00" nType="0"><Node pos="l" depth="3" NCoef="0" IVar="8" Cut="102.078247" cType="1" res="0.0e+00" rms="0.0e+00" purity="0.0e+00" nType="0"><Node pos="l" depth="4" NCoef="0" IVar="16" Cut="87.8453064" cType="1" res="0.0e+00" rms="0.0e+00" purity="0.0e+00" nType="0"><Node pos="l" depth="5" NCoef="0" IVar="40" Cut="3.05579066" cType="1" res="0.0e+00" rms="0.0e+00" purity="0.0e+00" nType="0"><Node pos="l" depth="6" NCoef="0" IVar="7" Cut="0.544859946" cType="1" res="0.0e+00" rms="0.0e+00" purity="0.0e+00" nType="0"><Node pos="l" depth="7" NCoef="0" IVar="33" Cut="0.149393618" cType="1" res="0.0e+00" rms="0.0e+00" purity="0.0e+00" nType="0"><Node pos="l" depth="8" NCoef="0" IVar="-1" Cut="0.0e+00" cType="1" res="-0.133535862" rms="0.0e+00" purity="0.0e+00" nType="-99" /><Node pos="r" depth="8" NCoef="0" IVar="-1" Cut="0.0e+00" cType="1" res="-0.0311278049" rms="0.0e+00" purity="0.0e+00" nType="-99" /></Node><Node pos="r" depth="7" NCoef="0" IVar="-1" Cut="0.0e+00" cType="1" res="-0.0277848523" rms="0.0e+00" purity="0.0e+00" nType="-99" /></Node><Node pos="r" depth="6" NCoef="0" IVar="-1" Cut="0.0e+00" cType="1" res="-0.0112952404" rms="0.0e+00" purity="0.0e+00" nType="-99" /></Node><Node pos="r" depth="5" NCoef="0" IVar="-1" Cut="0.0e+00" cType="1" res="0.0429917984" rms="0.0e+00" purity="0.0e+00" nType="-99" /></Node><Node pos="r" depth="4" NCoef="0" IVar="-1" Cut="0.0e+00" cType="1" res="0.0764043778" rms="0.0e+00" purity="0.0e+00" nType="-99" /></Node><Node pos="r" depth="3" NCoef="0" IVar="-1" Cut="0.0e+00" cType="1" res="0.123006038" rms="0.0e+00" purity="0.0e+00" nType="-99" /></Node><Node pos="r" depth="2" NCoef="0" IVar="-1" Cut="0.0e+00" cType="1" res="0.139945745" rms="0.0e+00" purity="0.0e+00" nType="-99" /></Node><Node pos="r" depth="1" NCoef="0" IVar="3" Cut="1.85661149" cType="1" res="0.0e+00" rms="0.0e+00" purity="0.0e+00" nType="0"><Node pos="l" depth="2" NCoef="0" IVar="7" Cut="0.449418187" cType="1" res="0.0e+00" rms="0.0e+00" purity="0.0e+00" nType="0"><Node pos="l" depth="3" NCoef="0" IVar="-1" Cut="0.0e+00" cType="1" res="0.0217645857" rms="0.0e+00" purity="0.0e+00" nType="-99" /><Node pos="r" depth="3" NCoef="0" IVar="-1" Cut="0.0e+00" cType="1" res="0.13439469" rms="0.0e+00" purity="0.0e+00" nType="-99" /></Node><Node pos="r" depth="2" NCoef="0" IVar="-1" Cut="0.0e+00" cType="1" res="0.309595525" rms="0.0e+00" purity="0.0e+00" nType="-99" /></Node></Node></BinaryTree><BinaryTree type="DecisionTree" boostWeight="1.0e+00" itree="3"><Node pos="s" depth="0" NCoef="0" IVar="3" Cut="0.961210728" cType="1" res="0.0e+00" rms="0.0e+00" purity="0.0e+00" nType="0"><Node pos="l" depth="1" NCoef="0" IVar="8" Cut="89.2197723" cType="1" res="0.0e+00" rms="0.0e+00" purity="0.0e+00" nType="0"><Node pos="l" depth="2" NCoef="0" IVar="19" Cut="100.667816" cType="1" res="0.0e+00" rms="0.0e+00" purity="0.0e+00" nType="0"><Node pos="l" depth="3" NCoef="0" IVar="40" Cut="2.03157806" cType="1" res="0.0e+00" rms="0.0e+00" purity="0.0e+00" nType="0"><Node pos="l" depth="4" NCoef="0" IVar="38" Cut="1.59496713" cType="1" res="0.0e+00" rms="0.0e+00" purity="0.0e+00" nType="0"><Node pos="l" depth="5" NCoef="0" IVar="-1" Cut="0.0e+00" cType="1" res="-0.107854605" rms="0.0e+00" purity="0.0e+00" nType="-99" /><Node pos="r" depth="5" NCoef="0" IVar="-1" Cut="0.0e+00" cType="1" res="-0.029896507" rms="0.0e+00" purity="0.0e+00" nType="-99" /></Node><Node pos="r" depth="4" NCoef="0" IVar="39" Cut="2.35722184" cType="1" res="0.0e+00" rms="0.0e+00" purity="0.0e+00" nType="0"><Node pos="l" depth="5" NCoef="0" IVar="8" Cut="34.2503471" cType="1" res="0.0e+00" rms="0.0e+00" purity="0.0e+00" nType="0"><Node pos="l" depth="6" NCoef="0" IVar="-1" Cut="0.0e+00" cType="1" res="-0.0209486708" rms="0.0e+00" purity="0.0e+00" nType="-99" /><Node pos="r" depth="6" NCoef="0" IVar="-1" Cut="0.0e+00" cType="1" res="-0.105459787" rms="0.0e+00" purity="0.0e+00" nType="-99" /></Node><Node pos="r" depth="5" NCoef="0" IVar="-1" Cut="0.0e+00" cType="1" res="0.0566822551" rms="0.0e+00" purity="0.0e+00" nType="-99" /></Node></Node><Node pos="r" depth="3" NCoef="0" IVar="-1" Cut="0.0e+00" cType="1" res="0.0474255234" rms="0.0e+00" purity="0.0e+00" nType="-99" /></Node><Node pos="r" depth="2" NCoef="0" IVar="-1" Cut="0.0e+00" cType="1" res="0.0833202973" rms="0.0e+00" purity="0.0e+00" nType="-99" /></Node><Node pos="r" depth="1" NCoef="0" IVar="32" Cut="0.669675708" cType="1" res="0.0e+00" rms="0.0e+00" purity="0.0e+00" nType="0"><Node pos="l" depth="2" NCoef="0" IVar="39" Cut="2.9971509" cType="1" res="0.0e+00" rms="0.0e+00" purity="0.0e+00" nType="0"><Node pos="l" depth="3" NCoef="0" IVar="11" Cut="59.6803741" cType="1" res="0.0e+00" rms="0.0e+00" purity="0.0e+00" nType="0"><Node pos="l" depth="4" NCoef="0" IVar="37" Cut="2.88036966" cType="1" res="0.0e+00" rms="0.0e+00" purity="0.0e+00" nType="0"><Node pos="l" depth="5" NCoef="0" IVar="-1" Cut="0.0e+00" cType="1" res="0.0116597265" rms="0.0e+00" purity="0.0e+00" nType="-99" /><Node pos="r" depth="5" NCoef="0" IVar="-1" Cut="0.0e+00" cType="1" res="0.0662599578" rms="0.0e+00" purity="0.0e+00" nType="-99" /></Node><Node pos="r" depth="4" NCoef="0" IVar="-1" Cut="0.0e+00" cType="1" res="-0.0435274281" rms="0.0e+00" purity="0.0e+00" nType="-99" /></Node><Node pos="r" depth="3" NCoef="0" IVar="-1" Cut="0.0e+00" cType="1" res="0.105736472" rms="0.0e+00" purity="0.0e+00" nType="-99" /></Node><Node pos="r" depth="2" NCoef="0" IVar="-1" Cut="0.0e+00" cType="1" res="0.207155734" rms="0.0e+00" purity="0.0e+00" nType="-99" /></Node></Node></BinaryTree><BinaryTree type="DecisionTree" boostWeight="1.0e+00" itree="4"><Node pos="s" depth="0" NCoef="0" IVar="3" Cut="2.03185225" cType="1" res="0.0e+00" rms="0.0e+00" purity="0.0e+00" nType="0"><Node pos="l" depth="1" NCoef="0" IVar="39" Cut="3.2989769" cType="1" res="0.0e+00" rms="0.0e+00" purity="0.0e+00" nType="0"><Node pos="l" depth="2" NCoef="0" IVar="37" Cut="3.23674774" cType="1" res="0.0e+00" rms="0.0e+00" purity="0.0e+00" nType="0"><Node pos="l" depth="3" NCoef="0" IVar="8" Cut="119.749229" cType="1" res="0.0e+00" rms="0.0e+00" purity="0.0e+00" nType="0"><Node pos="l" depth="4" NCoef="0" IVar="19" Cut="196.348862" cType="1" res="0.0e+00" rms="0.0e+00" purity="0.0e+00" nType="0"><Node pos="l" depth="5" NCoef="0" IVar="33" Cut="-0.960565269" cType="1" res="0.0e+00" rms="0.0e+00" purity="0.0e+00" nType="0"><Node pos="l" depth="6" NCoef="0" IVar="34" Cut="-0.825951099" cType="1" res="0.0e+00" rms="0.0e+00" purity="0.0e+00" nType="0"><Node pos="l" depth="7" NCoef="0" IVar="-1" Cut="0.0e+00" cType="1" res="-0.0957993418" rms="0.0e+00" purity="0.0e+00" nType="-99" /><Node pos="r" depth="7" NCoef="0" IVar="37" Cut="2.32785368" cType="1" res="0.0e+00" rms="0.0e+00" purity="0.0e+00" nType="0"><Node pos="l" depth="8" NCoef="0" IVar="-1" Cut="0.0e+00" cType="1" res="-0.0600759722" rms="0.0e+00" purity="0.0e+00" nType="-99" /><Node pos="r" depth="8" NCoef="0" IVar="-1" Cut="0.0e+00" cType="1" res="0.0331749357" rms="0.0e+00" purity="0.0e+00" nType="-99" /></Node></Node><Node pos="r" depth="6" NCoef="0" IVar="39" Cut="2.87033176" cType="1" res="0.0e+00" rms="0.0e+00" purity="0.0e+00" nType="0"><Node pos="l" depth="7" NCoef="0" IVar="8" Cut="25.3053627" cType="1" res="0.0e+00" rms="0.0e+00" purity="0.0e+00" nType="0"><Node pos="l" depth="8" NCoef="0" IVar="-1" Cut="0.0e+00" cType="1" res="0.049026642" rms="0.0e+00" purity="0.0e+00" nType="-99" /><Node pos="r" depth="8" NCoef="0" IVar="39" Cut="2.68310976" cType="1" res="0.0e+00" rms="0.0e+00" purity="0.0e+00" nType="0"><Node pos="l" depth="9" NCoef="0" IVar="8" Cut="34.5712471" cType="1" res="0.0e+00" rms="0.0e+00" purity="0.0e+00" nType="0"><Node pos="l" depth="10" NCoef="0" IVar="-1" Cut="0.0e+00" cType="1" res="-0.021029599" rms="0.0e+00" purity="0.0e+00" nType="-99" /><Node pos="r" depth="10" NCoef="0" IVar="-1" Cut="0.0e+00" cType="1" res="-0.097742103" rms="0.0e+00" purity="0.0e+00" nType="-99" /></Node><Node pos="r" depth="9" NCoef="0" IVar="-1" Cut="0.0e+00" cType="1" res="-0.0154361986" rms="0.0e+00" purity="0.0e+00" nType="-99" /></Node></Node><Node pos="r" depth="7" NCoef="0" IVar="-1" Cut="0.0e+00" cType="1" res="0.0565466471" rms="0.0e+00" purity="0.0e+00" nType="-99" /></Node></Node><Node pos="r" depth="5" NCoef="0" IVar="-1" Cut="0.0e+00" cType="1" res="0.0359036662" rms="0.0e+00" purity="0.0e+00" nType="-99" /></Node><Node pos="r" depth="4" NCoef="0" IVar="-1" Cut="0.0e+00" cType="1" res="0.0478836522" rms="0.0e+00" purity="0.0e+00" nType="-99" /></Node><Node pos="r" depth="3" NCoef="0" IVar="-1" Cut="0.0e+00" cType="1" res="0.137417853" rms="0.0e+00" purity="0.0e+00" nType="-99" /></Node><Node pos="r" depth="2" NCoef="0" IVar="-1" Cut="0.0e+00" cType="1" res="0.141454652" rms="0.0e+00" purity="0.0e+00" nType="-99" /></Node><Node pos="r" depth="1" NCoef="0" IVar="-1" Cut="0.0e+00" cType="1" res="0.195969477" rms="0.0e+00" purity="0.0e+00" nType="-99" /></Node></BinaryTree><BinaryTree type="DecisionTree" boostWeight="1.0e+00" itree="5"><Node pos="s" depth="0" NCoef="0" IVar="7" Cut="0.725319445" cType="1" res="0.0e+00" rms="0.0e+00" purity="0.0e+00" nType="0"><Node pos="l" depth="1" NCoef="0" IVar="3" Cut="0.631186128" cType="1" res="0.0e+00" rms="0.0e+00" purity="0.0e+00" nType="0"><Node pos="l" depth="2" NCoef="0" IVar="11" Cut="96.3866501" cType="1" res="0.0e+00" rms="0.0e+00" purity="0.0e+00" nType="0"><Node pos="l" depth="3" NCoef="0" IVar="38" Cut="1.30462003" cType="1" res="0.0e+00" rms="0.0e+00" purity="0.0e+00" nType="0"><Node pos="l" depth="4" NCoef="0" IVar="-1" Cut="0.0e+00" cType="1" res="-0.0927031338" rms="0.0e+00" purity="0.0e+00" nType="-99" /><Node pos="r" depth="4" NCoef="0" IVar="-1" Cut="0.0e+00" cType="1" res="-0.0103715863" rms="0.0e+00" purity="0.0e+00" nType="-99" /></Node><Node pos="r" depth="3" NCoef="0" IVar="-1" Cut="0.0e+00" cType="1" res="0.022563735" rms="0.0e+00" purity="0.0e+00" nType="-99" /></Node><Node pos="r" depth="2" NCoef="0" IVar="39" Cut="3.21121001" cType="1" res="0.0e+00" rms="0.0e+00" purity="0.0e+00" nType="0"><Node pos="l" depth="3" NCoef="0" IVar="37" Cut="3.13288355" cType="1" res="0.0e+00" rms="0.0e+00" purity="0.0e+00" nType="0"><Node pos="l" depth="4" NCoef="0" IVar="33" Cut="-0.734167099" cType="1" res="0.0e+00" rms="0.0e+00" purity="0.0e+00" nType="0"><Node pos="l" depth="5" NCoef="0" IVar="32" Cut="0.375050724" cType="1" res="0.0e+00" rms="0.0e+00" purity="0.0e+00" nType="0"><Node pos="l" depth="6" NCoef="0" IVar="38" Cut="2.22543097" cType="1" res="0.0e+00" rms="0.0e+00" purity="0.0e+00" nType="0"><Node pos="l" depth="7" NCoef="0" IVar="16" Cut="36.7645111" cType="1" res="0.0e+00" rms="0.0e+00" purity="0.0e+00" nType="0"><Node pos="l" depth="8" NCoef="0" IVar="8" Cut="48.4592285" cType="1" res="0.0e+00" rms="0.0e+00" purity="0.0e+00" nType="0"><Node pos="l" depth="9" NCoef="0" IVar="-1" Cut="0.0e+00" cType="1" res="0.0304163489" rms="0.0e+00" purity="0.0e+00" nType="-99" /><Node pos="r" depth="9" NCoef="0" IVar="40" Cut="1.82617307" cType="1" res="0.0e+00" rms="0.0e+00" purity="0.0e+00" nType="0"><Node pos="l" depth="10" NCoef="0" IVar="-1" Cut="0.0e+00" cType="1" res="-0.0411241129" rms="0.0e+00" purity="0.0e+00" nType="-99" /><Node pos="r" depth="10" NCoef="0" IVar="-1" Cut="0.0e+00" cType="1" res="0.00192354899" rms="0.0e+00" purity="0.0e+00" nType="-99" /></Node></Node><Node pos="r" depth="8" NCoef="0" IVar="-1" Cut="0.0e+00" cType="1" res="-0.0553349853" rms="0.0e+00" purity="0.0e+00" nType="-99" /></Node><Node pos="r" depth="7" NCoef="0" IVar="-1" Cut="0.0e+00" cType="1" res="0.0226866789" rms="0.0e+00" purity="0.0e+00" nType="-99" /></Node><Node pos="r" depth="6" NCoef="0" IVar="-1" Cut="0.0e+00" cType="1" res="-0.0663528368" rms="0.0e+00" purity="0.0e+00" nType="-99" /></Node><Node pos="r" depth="5" NCoef="0" IVar="8" Cut="39.325798" cType="1" res="0.0e+00" rms="0.0e+00" purity="0.0e+00" nType="0"><Node pos="l" depth="6" NCoef="0" IVar="-1" Cut="0.0e+00" cType="1" res="0.0667368919" rms="0.0e+00" purity="0.0e+00" nType="-99" /><Node pos="r" depth="6" NCoef="0" IVar="-1" Cut="0.0e+00" cType="1" res="0.000497195753" rms="0.0e+00" purity="0.0e+00" nType="-99" /></Node></Node><Node pos="r" depth="4" NCoef="0" IVar="-1" Cut="0.0e+00" cType="1" res="0.102675065" rms="0.0e+00" purity="0.0e+00" nType="-99" /></Node><Node pos="r" depth="3" NCoef="0" IVar="-1" Cut="0.0e+00" cType="1" res="0.115854062" rms="0.0e+00" purity="0.0e+00" nType="-99" /></Node></Node><Node pos="r" depth="1" NCoef="0" IVar="-1" Cut="0.0e+00" cType="1" res="0.142883942" rms="0.0e+00" purity="0.0e+00" nType="-99" /></Node></BinaryTree><BinaryTree type="DecisionTree" boostWeight="1.0e+00" itree="6"><Node pos="s" depth="0" NCoef="0" IVar="3" Cut="2.26094151" cType="1" res="0.0e+00" rms="0.0e+00" purity="0.0e+00" nType="0"><Node pos="l" depth="1" NCoef="0" IVar="38" Cut="3.10096169" cType="1" res="0.0e+00" rms="0.0e+00" purity="0.0e+00" nType="0"><Node pos="l" depth="2" NCoef="0" IVar="40" Cut="3.24186635" cType="1" res="0.0e+00" rms="0.0e+00" purity="0.0e+00" nType="0"><Node pos="l" depth="3" NCoef="0" IVar="39" Cut="3.2985208" cType="1" res="0.0e+00" rms="0.0e+00" purity="0.0e+00" nType="0"><Node pos="l" depth="4" NCoef="0" IVar="16" Cut="109.42865" cType="1" res="0.0e+00" rms="0.0e+00" purity="0.0e+00" nType="0"><Node pos="l" depth="5" NCoef="0" IVar="35" Cut="-0.781116605" cType="1" res="0.0e+00" rms="0.0e+00" purity="0.0e+00" nType="0"><Node pos="l" depth="6" NCoef="0" IVar="36" Cut="-0.311209828" cType="1" res="0.0e+00" rms="0.0e+00" purity="0.0e+00" nType="0"><Node pos="l" depth="7" NCoef="0" IVar="35" Cut="-0.90856576" cType="1" res="0.0e+00" rms="0.0e+00" purity="0.0e+00" nType="0"><Node pos="l" depth="8" NCoef="0" IVar="-1" Cut="0.0e+00" cType="1" res="-0.083381556" rms="0.0e+00" purity="0.0e+00" nType="-99" /><Node pos="r" depth="8" NCoef="0" IVar="-1" Cut="0.0e+00" cType="1" res="-0.0197561122" rms="0.0e+00" purity="0.0e+00" nType="-99" /></Node><Node pos="r" depth="7" NCoef="0" IVar="38" Cut="1.57504177" cType="1" res="0.0e+00" rms="0.0e+00" purity="0.0e+00" nType="0"><Node pos="l" depth="8" NCoef="0" IVar="-1" Cut="0.0e+00" cType="1" res="-0.0558192134" rms="0.0e+00" purity="0.0e+00" nType="-99" /><Node pos="r" depth="8" NCoef="0" IVar="-1" Cut="0.0e+00" cType="1" res="0.0298303887" rms="0.0e+00" purity="0.0e+00" nType="-99" /></Node></Node><Node pos="r" depth="6" NCoef="0" IVar="40" Cut="2.42191887" cType="1" res="0.0e+00" rms="0.0e+00" purity="0.0e+00" nType="0"><Node pos="l" depth="7" NCoef="0" IVar="8" Cut="32.474823" cType="1" res="0.0e+00" rms="0.0e+00" purity="0.0e+00" nType="0"><Node pos="l" depth="8" NCoef="0" IVar="-1" Cut="0.0e+00" cType="1" res="0.0183437914" rms="0.0e+00" purity="0.0e+00" nType="-99" /><Node pos="r" depth="8" NCoef="0" IVar="24" Cut="23.0762291" cType="1" res="0.0e+00" rms="0.0e+00" purity="0.0e+00" nType="0"><Node pos="l" depth="9" NCoef="0" IVar="35" Cut="0.468086869" cType="1" res="0.0e+00" rms="0.0e+00" purity="0.0e+00" nType="0"><Node pos="l" depth="10" NCoef="0" IVar="-1" Cut="0.0e+00" cType="1" res="-0.0500920154" rms="0.0e+00" purity="0.0e+00" nType="-99" /><Node pos="r" depth="10" NCoef="0" IVar="-1" Cut="0.0e+00" cType="1" res="-0.00936279073" rms="0.0e+00" purity="0.0e+00" nType="-99" /></Node><Node pos="r" depth="9" NCoef="0" IVar="-1" Cut="0.0e+00" cType="1" res="-0.0045854249" rms="0.0e+00" purity="0.0e+00" nType="-99" /></Node></Node><Node pos="r" depth="7" NCoef="0" IVar="-1" Cut="0.0e+00" cType="1" res="0.0431377292" rms="0.0e+00" purity="0.0e+00" nType="-99" /></Node></Node><Node pos="r" depth="5" NCoef="0" IVar="-1" Cut="0.0e+00" cType="1" res="0.0384651124" rms="0.0e+00" purity="0.0e+00" nType="-99" /></Node><Node pos="r" depth="4" NCoef="0" IVar="-1" Cut="0.0e+00" cType="1" res="0.0414072238" rms="0.0e+00" purity="0.0e+00" nType="-99" /></Node><Node pos="r" depth="3" NCoef="0" IVar="-1" Cut="0.0e+00" cType="1" res="0.107461438" rms="0.0e+00" purity="0.0e+00" nType="-99" /></Node><Node pos="r" depth="2" NCoef="0" IVar="-1" Cut="0.0e+00" cType="1" res="0.10961891" rms="0.0e+00" purity="0.0e+00" nType="-99" /></Node><Node pos="r" depth="1" NCoef="0" IVar="-1" Cut="0.0e+00" cType="1" res="0.140005261" rms="0.0e+00" purity="0.0e+00" nType="-99" /></Node></BinaryTree><BinaryTree type="DecisionTree" boostWeight="1.0e+00" itree="7"><Node pos="s" depth="0" NCoef="0" IVar="7" Cut="0.807484686" cType="1" res="0.0e+00" rms="0.0e+00" purity="0.0e+00" nType="0"><Node pos="l" depth="1" NCoef="0" IVar="39" Cut="3.35046935" cType="1" res="0.0e+00" rms="0.0e+00" purity="0.0e+00" nType="0"><Node pos="l" depth="2" NCoef="0" IVar="37" Cut="3.24871206" cType="1" res="0.0e+00" rms="0.0e+00" purity="0.0e+00" nType="0"><Node pos="l" depth="3" NCoef="0" IVar="11" Cut="255.867981" cType="1" res="0.0e+00" rms="0.0e+00" purity="0.0e+00" nType="0"><Node pos="l" depth="4" NCoef="0" IVar="33" Cut="-0.913574696" cType="1" res="0.0e+00" rms="0.0e+00" purity="0.0e+00" nType="0"><Node pos="l" depth="5" NCoef="0" IVar="34" Cut="-0.9563905" cType="1" res="0.0e+00" rms="0.0e+00" purity="0.0e+00" nType="0"><Node pos="l" depth="6" NCoef="0" IVar="6" Cut="0.772785664" cType="1" res="0.0e+00" rms="0.0e+00" purity="0.0e+00" nType="0"><Node pos="l" depth="7" NCoef="0" IVar="-1" Cut="0.0e+00" cType="1" res="-0.015472807" rms="0.0e+00" purity="0.0e+00" nType="-99" /><Node pos="r" depth="7" NCoef="0" IVar="-1" Cut="0.0e+00" cType="1" res="-0.066877827" rms="0.0e+00" purity="0.0e+00" nType="-99" /></Node><Node pos="r" depth="6" NCoef="0" IVar="37" Cut="2.79341745" cType="1" res="0.0e+00" rms="0.0e+00" purity="0.0e+00" nType="0"><Node pos="l" depth="7" NCoef="0" IVar="34" Cut="-0.327146471" cType="1" res="0.0e+00" rms="0.0e+00" purity="0.0e+00" nType="0"><Node pos="l" depth="8" NCoef="0" IVar="36" Cut="-0.32756412" cType="1" res="0.0e+00" rms="0.0e+00" purity="0.0e+00" nType="0"><Node pos="l" depth="9" NCoef="0" IVar="-1" Cut="0.0e+00" cType="1" res="-0.0651558042" rms="0.0e+00" purity="0.0e+00" nType="-99" /><Node pos="r" depth="9" NCoef="0" IVar="-1" Cut="0.0e+00" cType="1" res="-0.012840379" rms="0.0e+00" purity="0.0e+00" nType="-99" /></Node><Node pos="r" depth="8" NCoef="0" IVar="-1" Cut="0.0e+00" cType="1" res="0.0112347482" rms="0.0e+00" purity="0.0e+00" nType="-99" /></Node><Node pos="r" depth="7" NCoef="0" IVar="-1" Cut="0.0e+00" cType="1" res="0.0682612211" rms="0.0e+00" purity="0.0e+00" nType="-99" /></Node></Node><Node pos="r" depth="5" NCoef="0" IVar="39" Cut="2.65132332" cType="1" res="0.0e+00" rms="0.0e+00" purity="0.0e+00" nType="0"><Node pos="l" depth="6" NCoef="0" IVar="8" Cut="25.3334084" cType="1" res="0.0e+00" rms="0.0e+00" purity="0.0e+00" nType="0"><Node pos="l" depth="7" NCoef="0" IVar="-1" Cut="0.0e+00" cType="1" res="0.0259737894" rms="0.0e+00" purity="0.0e+00" nType="-99" /><Node pos="r" depth="7" NCoef="0" IVar="35" Cut="-0.628793001" cType="1" res="0.0e+00" rms="0.0e+00" purity="0.0e+00" nType="0"><Node pos="l" depth="8" NCoef="0" IVar="-1" Cut="0.0e+00" cType="1" res="-0.0577256233" rms="0.0e+00" purity="0.0e+00" nType="-99" /><Node pos="r" depth="8" NCoef="0" IVar="-1" Cut="0.0e+00" cType="1" res="-0.0175660122" rms="0.0e+00" purity="0.0e+00" nType="-99" /></Node></Node><Node pos="r" depth="6" NCoef="0" IVar="-1" Cut="0.0e+00" cType="1" res="0.05276585" rms="0.0e+00" purity="0.0e+00" nType="-99" /></Node></Node><Node pos="r" depth="4" NCoef="0" IVar="-1" Cut="0.0e+00" cType="1" res="0.0365262628" rms="0.0e+00" purity="0.0e+00" nType="-99" /></Node><Node pos="r" depth="3" NCoef="0" IVar="-1" Cut="0.0e+00" cType="1" res="0.0778336227" rms="0.0e+00" purity="0.0e+00" nType="-99" /></Node><Node pos="r" depth="2" NCoef="0" IVar="-1" Cut="0.0e+00" cType="1" res="0.07952407" rms="0.0e+00" purity="0.0e+00" nType="-99" /></Node><Node pos="r" depth="1" NCoef="0" IVar="-1" Cut="0.0e+00" cType="1" res="0.0987088755" rms="0.0e+00" purity="0.0e+00" nType="-99" /></Node></BinaryTree><BinaryTree type="DecisionTree" boostWeight="1.0e+00" itree="8"><Node pos="s" depth="0" NCoef="0" IVar="3" Cut="0.652319074" cType="1" res="0.0e+00" rms="0.0e+00" purity="0.0e+00" nType="0"><Node pos="l" depth="1" NCoef="0" IVar="11" Cut="102.751663" cType="1" res="0.0e+00" rms="0.0e+00" purity="0.0e+00" nType="0"><Node pos="l" depth="2" NCoef="0" IVar="34" Cut="-0.914198399" cType="1" res="0.0e+00" rms="0.0e+00" purity="0.0e+00" nType="0"><Node pos="l" depth="3" NCoef="0" IVar="6" Cut="0.762241602" cType="1" res="0.0e+00" rms="0.0e+00" purity="0.0e+00" nType="0"><Node pos="l" depth="4" NCoef="0" IVar="-1" Cut="0.0e+00" cType="1" res="-0.0163686201" rms="0.0e+00" purity="0.0e+00" nType="-99" /><Node pos="r" depth="4" NCoef="0" IVar="-1" Cut="0.0e+00" cType="1" res="-0.0629251376" rms="0.0e+00" purity="0.0e+00" nType="-99" /></Node><Node pos="r" depth="3" NCoef="0" IVar="-1" Cut="0.0e+00" cType="1" res="-0.00195826404" rms="0.0e+00" purity="0.0e+00" nType="-99" /></Node><Node pos="r" depth="2" NCoef="0" IVar="-1" Cut="0.0e+00" cType="1" res="0.0250722077" rms="0.0e+00" purity="0.0e+00" nType="-99" /></Node><Node pos="r" depth="1" NCoef="0" IVar="40" Cut="2.85525799" cType="1" res="0.0e+00" rms="0.0e+00" purity="0.0e+00" nType="0"><Node pos="l" depth="2" NCoef="0" IVar="37" Cut="3.13288355" cType="1" res="0.0e+00" rms="0.0e+00" purity="0.0e+00" nType="0"><Node pos="l" depth="3" NCoef="0" IVar="33" Cut="-0.963550091" cType="1" res="0.0e+00" rms="0.0e+00" purity="0.0e+00" nType="0"><Node pos="l" depth="4" NCoef="0" IVar="34" Cut="-0.791262269" cType="1" res="0.0e+00" rms="0.0e+00" purity="0.0e+00" nType="0"><Node pos="l" depth="5" NCoef="0" IVar="32" Cut="0.415424705" cType="1" res="0.0e+00" rms="0.0e+00" purity="0.0e+00" nType="0"><Node pos="l" depth="6" NCoef="0" IVar="0" Cut="-0.0470777005" cType="1" res="0.0e+00" rms="0.0e+00" purity="0.0e+00" nType="0"><Node pos="l" depth="7" NCoef="0" IVar="-1" Cut="0.0e+00" cType="1" res="0.00845517125" rms="0.0e+00" purity="0.0e+00" nType="-99" /><Node pos="r" depth="7" NCoef="0" IVar="-1" Cut="0.0e+00" cType="1" res="-0.0248491652" rms="0.0e+00" purity="0.0e+00" nType="-99" /></Node><Node pos="r" depth="6" NCoef="0" IVar="-1" Cut="0.0e+00" cType="1" res="-0.0602288693" rms="0.0e+00" purity="0.0e+00" nType="-99" /></Node><Node pos="r" depth="5" NCoef="0" IVar="-1" Cut="0.0e+00" cType="1" res="0.0189147554" rms="0.0e+00" purity="0.0e+00" nType="-99" /></Node><Node pos="r" depth="4" NCoef="0" IVar="8" Cut="41.5860901" cType="1" res="0.0e+00" rms="0.0e+00" purity="0.0e+00" nType="0"><Node pos="l" depth="5" NCoef="0" IVar="-1" Cut="0.0e+00" cType="1" res="0.0499351174" rms="0.0e+00" purity="0.0e+00" nType="-99" /><Node pos="r" depth="5" NCoef="0" IVar="39" Cut="2.77102518" cType="1" res="0.0e+00" rms="0.0e+00" purity="0.0e+00" nType="0"><Node pos="l" depth="6" NCoef="0" IVar="-1" Cut="0.0e+00" cType="1" res="-0.0341776758" rms="0.0e+00" purity="0.0e+00" nType="-99" /><Node pos="r" depth="6" NCoef="0" IVar="-1" Cut="0.0e+00" cType="1" res="0.0381646492" rms="0.0e+00" purity="0.0e+00" nType="-99" /></Node></Node></Node><Node pos="r" depth="3" NCoef="0" IVar="-1" Cut="0.0e+00" cType="1" res="0.0964026377" rms="0.0e+00" purity="0.0e+00" nType="-99" /></Node><Node pos="r" depth="2" NCoef="0" IVar="39" Cut="3.01516533" cType="1" res="0.0e+00" rms="0.0e+00" purity="0.0e+00" nType="0"><Node pos="l" depth="3" NCoef="0" IVar="-1" Cut="0.0e+00" cType="1" res="0.00516506284" rms="0.0e+00" purity="0.0e+00" nType="-99" /><Node pos="r" depth="3" NCoef="0" IVar="-1" Cut="0.0e+00" cType="1" res="0.143595517" rms="0.0e+00" purity="0.0e+00" nType="-99" /></Node></Node></Node></BinaryTree><BinaryTree type="DecisionTree" boostWeight="1.0e+00" itree="9"><Node pos="s" depth="0" NCoef="0" IVar="38" Cut="3.05489969" cType="1" res="0.0e+00" rms="0.0e+00" purity="0.0e+00" nType="0"><Node pos="l" depth="1" NCoef="0" IVar="40" Cut="3.15842557" cType="1" res="0.0e+00" rms="0.0e+00" purity="0.0e+00" nType="0"><Node pos="l" depth="2" NCoef="0" IVar="8" Cut="148.892395" cType="1" res="0.0e+00" rms="0.0e+00" purity="0.0e+00" nType="0"><Node pos="l" depth="3" NCoef="0" IVar="19" Cut="228.408173" cType="1" res="0.0e+00" rms="0.0e+00" purity="0.0e+00" nType="0"><Node pos="l" depth="4" NCoef="0" IVar="33" Cut="-0.986820579" cType="1" res="0.0e+00" rms="0.0e+00" purity="0.0e+00" nType="0"><Node pos="l" depth="5" NCoef="0" IVar="34" Cut="-0.975706697" cType="1" res="0.0e+00" rms="0.0e+00" purity="0.0e+00" nType="0"><Node pos="l" depth="6" NCoef="0" IVar="-1" Cut="0.0e+00" cType="1" res="-0.0725155994" rms="0.0e+00" purity="0.0e+00" nType="-99" /><Node pos="r" depth="6" NCoef="0" IVar="37" Cut="2.89158344" cType="1" res="0.0e+00" rms="0.0e+00" purity="0.0e+00" nType="0"><Node pos="l" depth="7" NCoef="0" IVar="16" Cut="32.6339149" cType="1" res="0.0e+00" rms="0.0e+00" purity="0.0e+00" nType="0"><Node pos="l" depth="8" NCoef="0" IVar="-1" Cut="0.0e+00" cType="1" res="0.0210918486" rms="0.0e+00" purity="0.0e+00" nType="-99" /><Node pos="r" depth="8" NCoef="0" IVar="-1" Cut="0.0e+00" cType="1" res="-0.0507174507" rms="0.0e+00" purity="0.0e+00" nType="-99" /></Node><Node pos="r" depth="7" NCoef="0" IVar="-1" Cut="0.0e+00" cType="1" res="0.030593399" rms="0.0e+00" purity="0.0e+00" nType="-99" /></Node></Node><Node pos="r" depth="5" NCoef="0" IVar="39" Cut="2.96528292" cType="1" res="0.0e+00" rms="0.0e+00" purity="0.0e+00" nType="0"><Node pos="l" depth="6" NCoef="0" IVar="8" Cut="35.4982147" cType="1" res="0.0e+00" rms="0.0e+00" purity="0.0e+00" nType="0"><Node pos="l" depth="7" NCoef="0" IVar="32" Cut="-0.757487953" cType="1" res="0.0e+00" rms="0.0e+00" purity="0.0e+00" nType="0"><Node pos="l" depth="8" NCoef="0" IVar="-1" Cut="0.0e+00" cType="1" res="-0.0251159817" rms="0.0e+00" purity="0.0e+00" nType="-99" /><Node pos="r" depth="8" NCoef="0" IVar="-1" Cut="0.0e+00" cType="1" res="0.0612002499" rms="0.0e+00" purity="0.0e+00" nType="-99" /></Node><Node pos="r" depth="7" NCoef="0" IVar="3" Cut="0.792619109" cType="1" res="0.0e+00" rms="0.0e+00" purity="0.0e+00" nType="0"><Node pos="l" depth="8" NCoef="0" IVar="3" Cut="0.613399267" cType="1" res="0.0e+00" rms="0.0e+00" purity="0.0e+00" nType="0"><Node pos="l" depth="9" NCoef="0" IVar="-1" Cut="0.0e+00" cType="1" res="-0.0267274883" rms="0.0e+00" purity="0.0e+00" nType="-99" /><Node pos="r" depth="9" NCoef="0" IVar="-1" Cut="0.0e+00" cType="1" res="0.00670755887" rms="0.0e+00" purity="0.0e+00" nType="-99" /></Node><Node pos="r" depth="8" NCoef="0" IVar="-1" Cut="0.0e+00" cType="1" res="-0.0536430366" rms="0.0e+00" purity="0.0e+00" nType="-99" /></Node></Node><Node pos="r" depth="6" NCoef="0" IVar="-1" Cut="0.0e+00" cType="1" res="0.0379192643" rms="0.0e+00" purity="0.0e+00" nType="-99" /></Node></Node><Node pos="r" depth="4" NCoef="0" IVar="-1" Cut="0.0e+00" cType="1" res="0.0387177691" rms="0.0e+00" purity="0.0e+00" nType="-99" /></Node><Node pos="r" depth="3" NCoef="0" IVar="-1" Cut="0.0e+00" cType="1" res="0.0484650284" rms="0.0e+00" purity="0.0e+00" nType="-99" /></Node><Node pos="r" depth="2" NCoef="0" IVar="-1" Cut="0.0e+00" cType="1" res="0.0813860372" rms="0.0e+00" purity="0.0e+00" nType="-99" /></Node><Node pos="r" depth="1" NCoef="0" IVar="-1" Cut="0.0e+00" cType="1" res="0.088990733" rms="0.0e+00" purity="0.0e+00" nType="-99" /></Node></BinaryTree></Weights></MethodSetup>