<MethodSetup Method="BDT::BDT"><Variables NVar="49"><Variable VarIndex="0" Type="F" Expression="pho1_eta" Label="pho1_eta" Title="pho1_eta" Unit="" Internal="pho1_eta" Min="0.0e+00" Max="0.0e+00" /><Variable VarIndex="1" Type="F" Expression="pho1_phi" Label="pho1_phi" Title="pho1_phi" Unit="" Internal="pho1_phi" Min="0.0e+00" Max="0.0e+00" /><Variable VarIndex="2" Type="F" Expression="pho1_idmva" Label="pho1_idmva" Title="pho1_idmva" Unit="" Internal="pho1_idmva" Min="0.0e+00" Max="0.0e+00" /><Variable VarIndex="3" Type="F" Expression="pho1_ptOverMgg" Label="pho1_ptOverMgg" Title="pho1_ptOverMgg" Unit="" Internal="pho1_ptOverMgg" Min="0.0e+00" Max="0.0e+00" /><Variable VarIndex="4" Type="F" Expression="pho2_eta" Label="pho2_eta" Title="pho2_eta" Unit="" Internal="pho2_eta" Min="0.0e+00" Max="0.0e+00" /><Variable VarIndex="5" Type="F" Expression="pho2_phi" Label="pho2_phi" Title="pho2_phi" Unit="" Internal="pho2_phi" Min="0.0e+00" Max="0.0e+00" /><Variable VarIndex="6" Type="F" Expression="pho2_idmva" Label="pho2_idmva" Title="pho2_idmva" Unit="" Internal="pho2_idmva" Min="0.0e+00" Max="0.0e+00" /><Variable VarIndex="7" Type="F" Expression="pho2_ptOverMgg" Label="pho2_ptOverMgg" Title="pho2_ptOverMgg" Unit="" Internal="pho2_ptOverMgg" Min="0.0e+00" Max="0.0e+00" /><Variable VarIndex="8" Type="F" Expression="mu1_pt" Label="mu1_pt" Title="mu1_pt" Unit="" Internal="mu1_pt" Min="0.0e+00" Max="0.0e+00" /><Variable VarIndex="9" Type="F" Expression="mu1_phi" Label="mu1_phi" Title="mu1_phi" Unit="" Internal="mu1_phi" Min="0.0e+00" Max="0.0e+00" /><Variable VarIndex="10" Type="F" Expression="mu1_eta" Label="mu1_eta" Title="mu1_eta" Unit="" Internal="mu1_eta" Min="0.0e+00" Max="0.0e+00" /><Variable VarIndex="11" Type="F" Expression="mu1_energy" Label="mu1_energy" Title="mu1_energy" Unit="" Internal="mu1_energy" Min="0.0e+00" Max="0.0e+00" /><Variable VarIndex="12" Type="F" Expression="mu2_pt" Label="mu2_pt" Title="mu2_pt" Unit="" Internal="mu2_pt" Min="0.0e+00" Max="0.0e+00" /><Variable VarIndex="13" Type="F" Expression="mu2_phi" Label="mu2_phi" Title="mu2_phi" Unit="" Internal="mu2_phi" Min="0.0e+00" Max="0.0e+00" /><Variable VarIndex="14" Type="F" Expression="mu2_eta" Label="mu2_eta" Title="mu2_eta" Unit="" Internal="mu2_eta" Min="0.0e+00" Max="0.0e+00" /><Variable VarIndex="15" Type="F" Expression="mu2_energy" Label="mu2_energy" Title="mu2_energy" Unit="" Internal="mu2_energy" Min="0.0e+00" Max="0.0e+00" /><Variable VarIndex="16" Type="F" Expression="ele1_pt" Label="ele1_pt" Title="ele1_pt" Unit="" Internal="ele1_pt" Min="0.0e+00" Max="0.0e+00" /><Variable VarIndex="17" Type="F" Expression="ele1_phi" Label="ele1_phi" Title="ele1_phi" Unit="" Internal="ele1_phi" Min="0.0e+00" Max="0.0e+00" /><Variable VarIndex="18" Type="F" Expression="ele1_eta" Label="ele1_eta" Title="ele1_eta" Unit="" Internal="ele1_eta" Min="0.0e+00" Max="0.0e+00" /><Variable VarIndex="19" Type="F" Expression="ele1_energy" Label="ele1_energy" Title="ele1_energy" Unit="" Internal="ele1_energy" Min="0.0e+00" Max="0.0e+00" /><Variable VarIndex="20" Type="F" Expression="ele2_pt" Label="ele2_pt" Title="ele2_pt" Unit="" Internal="ele2_pt" Min="0.0e+00" Max="0.0e+00" /><Variable VarIndex="21" Type="F" Expression="ele2_phi" Label="ele2_phi" Title="ele2_phi" Unit="" Internal="ele2_phi" Min="0.0e+00" Max="0.0e+00" /><Variable VarIndex="22" Type="F" Expression="ele2_eta" Label="ele2_eta" Title="ele2_eta" Unit="" Internal="ele2_eta" Min="0.0e+00" Max="0.0e+00" /><Variable VarIndex="23" Type="F" Expression="ele2_energy" Label="ele2_energy" Title="ele2_energy" Unit="" Internal="ele2_energy" Min="0.0e+00" Max="0.0e+00" /><Variable VarIndex="24" Type="F" Expression="jet1_pt" Label="jet1_pt" Title="jet1_pt" Unit="" Internal="jet1_pt" Min="0.0e+00" Max="0.0e+00" /><Variable VarIndex="25" Type="F" Expression="jet1_phi" Label="jet1_phi" Title="jet1_phi" Unit="" Internal="jet1_phi" Min="0.0e+00" Max="0.0e+00" /><Variable VarIndex="26" Type="F" Expression="jet1_eta" Label="jet1_eta" Title="jet1_eta" Unit="" Internal="jet1_eta" Min="0.0e+00" Max="0.0e+00" /><Variable VarIndex="27" Type="F" Expression="jet1_energy" Label="jet1_energy" Title="jet1_energy" Unit="" Internal="jet1_energy" Min="0.0e+00" Max="0.0e+00" /><Variable VarIndex="28" Type="F" Expression="jet2_pt" Label="jet2_pt" Title="jet2_pt" Unit="" Internal="jet2_pt" Min="0.0e+00" Max="0.0e+00" /><Variable VarIndex="29" Type="F" Expression="jet2_phi" Label="jet2_phi" Title="jet2_phi" Unit="" Internal="jet2_phi" Min="0.0e+00" Max="0.0e+00" /><Variable VarIndex="30" Type="F" Expression="jet2_eta" Label="jet2_eta" Title="jet2_eta" Unit="" Internal="jet2_eta" Min="0.0e+00" Max="0.0e+00" /><Variable VarIndex="31" Type="F" Expression="jet2_energy" Label="jet2_energy" Title="jet2_energy" Unit="" Internal="jet2_energy" Min="0.0e+00" Max="0.0e+00" /><Variable VarIndex="32" Type="F" Expression="cosPhiGG" Label="cosPhiGG" Title="cosPhiGG" Unit="" Internal="cosPhiGG" Min="0.0e+00" Max="0.0e+00" /><Variable VarIndex="33" Type="F" Expression="cosPhiG1_Mu1" Label="cosPhiG1_Mu1" Title="cosPhiG1_Mu1" Unit="" Internal="cosPhiG1_Mu1" Min="0.0e+00" Max="0.0e+00" /><Variable VarIndex="34" Type="F" Expression="cosPhiG1_Ele1" Label="cosPhiG1_Ele1" Title="cosPhiG1_Ele1" Unit="" Internal="cosPhiG1_Ele1" Min="0.0e+00" Max="0.0e+00" /><Variable VarIndex="35" Type="F" Expression="cosPhiG2_Mu1" Label="cosPhiG2_Mu1" Title="cosPhiG2_Mu1" Unit="" Internal="cosPhiG2_Mu1" Min="0.0e+00" Max="0.0e+00" /><Variable VarIndex="36" Type="F" Expression="cosPhiG2_Ele1" Label="cosPhiG2_Ele1" Title="cosPhiG2_Ele1" Unit="" Internal="cosPhiG2_Ele1" Min="0.0e+00" Max="0.0e+00" /><Variable VarIndex="37" Type="F" Expression="dR_Pho1Ele1_wh" Label="dR_Pho1Ele1_wh" Title="dR_Pho1Ele1_wh" Unit="" Internal="dR_Pho1Ele1_wh" Min="0.0e+00" Max="0.0e+00" /><Variable VarIndex="38" Type="F" Expression="dR_Pho2Ele1_wh" Label="dR_Pho2Ele1_wh" Title="dR_Pho2Ele1_wh" Unit="" Internal="dR_Pho2Ele1_wh" Min="0.0e+00" Max="0.0e+00" /><Variable VarIndex="39" Type="F" Expression="dR_Pho1Mu1_wh" Label="dR_Pho1Mu1_wh" Title="dR_Pho1Mu1_wh" Unit="" Internal="dR_Pho1Mu1_wh" Min="0.0e+00" Max="0.0e+00" /><Variable VarIndex="40" Type="F" Expression="dR_Pho2Mu1_wh" Label="dR_Pho2Mu1_wh" Title="dR_Pho2Mu1_wh" Unit="" Internal="dR_Pho2Mu1_wh" Min="0.0e+00" Max="0.0e+00" /><Variable VarIndex="41" Type="F" Expression="dR_Pho1Jet1_wh" Label="dR_Pho1Jet1_wh" Title="dR_Pho1Jet1_wh" Unit="" Internal="dR_Pho1Jet1_wh" Min="0.0e+00" Max="0.0e+00" /><Variable VarIndex="42" Type="F" Expression="dR_Pho2Jet1_wh" Label="dR_Pho2Jet1_wh" Title="dR_Pho2Jet1_wh" Unit="" Internal="dR_Pho2Jet1_wh" Min="0.0e+00" Max="0.0e+00" /><Variable VarIndex="43" Type="F" Expression="dR_Pho1Jet2_wh" Label="dR_Pho1Jet2_wh" Title="dR_Pho1Jet2_wh" Unit="" Internal="dR_Pho1Jet2_wh" Min="0.0e+00" Max="0.0e+00" /><Variable VarIndex="44" Type="F" Expression="dR_Pho2Jet2_wh" Label="dR_Pho2Jet2_wh" Title="dR_Pho2Jet2_wh" Unit="" Internal="dR_Pho2Jet2_wh" Min="0.0e+00" Max="0.0e+00" /><Variable VarIndex="45" Type="F" Expression="dR_Mu1Jet1_wh" Label="dR_Mu1Jet1_wh" Title="dR_Mu1Jet1_wh" Unit="" Internal="dR_Mu1Jet1_wh" Min="0.0e+00" Max="0.0e+00" /><Variable VarIndex="46" Type="F" Expression="dR_Mu1Jet2_wh" Label="dR_Mu1Jet2_wh" Title="dR_Mu1Jet2_wh" Unit="" Internal="dR_Mu1Jet2_wh" Min="0.0e+00" Max="0.0e+00" /><Variable VarIndex="47" Type="F" Expression="dR_Ele1Jet1_wh" Label="dR_Ele1Jet1_wh" Title="dR_Ele1Jet1_wh" Unit="" Internal="dR_Ele1Jet1_wh" Min="0.0e+00" Max="0.0e+00" /><Variable VarIndex="48" Type="F" Expression="dR_Ele1Jet2_wh" Label="dR_Ele1Jet2_wh" Title="dR_Ele1Jet2_wh" Unit="" Internal="dR_Ele1Jet2_wh" Min="0.0e+00" Max="0.0e+00" /></Variables><GeneralInfo><Info name="Creator" value="xgboost2TMVA" /><Info name="AnalysisType" value="Classification" /></GeneralInfo><Options><Option name="NodePurityLimit" modified="No">5.00e-01</Option><Option name="BoostType" modified="Yes">Grad</Option></Options><Weights NTrees="10" AnalysisType="1"><BinaryTree type="DecisionTree" boostWeight="1.0e+00" itree="0"><Node pos="s" depth="0" NCoef="0" IVar="3" Cut="1.04446876" cType="1" res="0.0e+00" rms="0.0e+00" purity="0.0e+00" nType="0"><Node pos="l" depth="1" NCoef="0" IVar="32" Cut="-0.051903747" cType="1" res="0.0e+00" rms="0.0e+00" purity="0.0e+00" nType="0"><Node pos="l" depth="2" NCoef="0" IVar="39" Cut="3.10714293" cType="1" res="0.0e+00" rms="0.0e+00" purity="0.0e+00" nType="0"><Node pos="l" depth="3" NCoef="0" IVar="-1" Cut="0.0e+00" cType="1" res="-0.386095464" rms="0.0e+00" purity="0.0e+00" nType="-99" /><Node pos="r" depth="3" NCoef="0" IVar="-1" Cut="0.0e+00" cType="1" res="-0.103923388" rms="0.0e+00" purity="0.0e+00" nType="-99" /></Node><Node pos="r" depth="2" NCoef="0" IVar="3" Cut="0.794628322" cType="1" res="0.0e+00" rms="0.0e+00" purity="0.0e+00" nType="0"><Node pos="l" depth="3" NCoef="0" IVar="7" Cut="0.439199567" cType="1" res="0.0e+00" rms="0.0e+00" purity="0.0e+00" nType="0"><Node pos="l" depth="4" NCoef="0" IVar="-1" Cut="0.0e+00" cType="1" res="-0.12585111" rms="0.0e+00" purity="0.0e+00" nType="-99" /><Node pos="r" depth="4" NCoef="0" IVar="-1" Cut="0.0e+00" cType="1" res="0.00286531728" rms="0.0e+00" purity="0.0e+00" nType="-99" /></Node><Node pos="r" depth="3" NCoef="0" IVar="-1" Cut="0.0e+00" cType="1" res="0.132808283" rms="0.0e+00" purity="0.0e+00" nType="-99" /></Node></Node><Node pos="r" depth="1" NCoef="0" IVar="32" Cut="0.17051965" cType="1" res="0.0e+00" rms="0.0e+00" purity="0.0e+00" nType="0"><Node pos="l" depth="2" NCoef="0" IVar="-1" Cut="0.0e+00" cType="1" res="0.100442186" rms="0.0e+00" purity="0.0e+00" nType="-99" /><Node pos="r" depth="2" NCoef="0" IVar="-1" Cut="0.0e+00" cType="1" res="0.657871783" rms="0.0e+00" purity="0.0e+00" nType="-99" /></Node></Node></BinaryTree><BinaryTree type="DecisionTree" boostWeight="1.0e+00" itree="1"><Node pos="s" depth="0" NCoef="0" IVar="3" Cut="1.21407187" cType="1" res="0.0e+00" rms="0.0e+00" purity="0.0e+00" nType="0"><Node pos="l" depth="1" NCoef="0" IVar="32" Cut="-0.331477463" cType="1" res="0.0e+00" rms="0.0e+00" purity="0.0e+00" nType="0"><Node pos="l" depth="2" NCoef="0" IVar="3" Cut="0.845752895" cType="1" res="0.0e+00" rms="0.0e+00" purity="0.0e+00" nType="0"><Node pos="l" depth="3" NCoef="0" IVar="-1" Cut="0.0e+00" cType="1" res="-0.254927069" rms="0.0e+00" purity="0.0e+00" nType="-99" /><Node pos="r" depth="3" NCoef="0" IVar="-1" Cut="0.0e+00" cType="1" res="-0.0716290623" rms="0.0e+00" purity="0.0e+00" nType="-99" /></Node><Node pos="r" depth="2" NCoef="0" IVar="3" Cut="0.777038336" cType="1" res="0.0e+00" rms="0.0e+00" purity="0.0e+00" nType="0"><Node pos="l" depth="3" NCoef="0" IVar="7" Cut="0.502102494" cType="1" res="0.0e+00" rms="0.0e+00" purity="0.0e+00" nType="0"><Node pos="l" depth="4" NCoef="0" IVar="-1" Cut="0.0e+00" cType="1" res="-0.108830199" rms="0.0e+00" purity="0.0e+00" nType="-99" /><Node pos="r" depth="4" NCoef="0" IVar="-1" Cut="0.0e+00" cType="1" res="-0.00606997916" rms="0.0e+00" purity="0.0e+00" nType="-99" /></Node><Node pos="r" depth="3" NCoef="0" IVar="32" Cut="0.328344256" cType="1" res="0.0e+00" rms="0.0e+00" purity="0.0e+00" nType="0"><Node pos="l" depth="4" NCoef="0" IVar="-1" Cut="0.0e+00" cType="1" res="0.00850444473" rms="0.0e+00" purity="0.0e+00" nType="-99" /><Node pos="r" depth="4" NCoef="0" IVar="-1" Cut="0.0e+00" cType="1" res="0.125233084" rms="0.0e+00" purity="0.0e+00" nType="-99" /></Node></Node></Node><Node pos="r" depth="1" NCoef="0" IVar="3" Cut="1.47198141" cType="1" res="0.0e+00" rms="0.0e+00" purity="0.0e+00" nType="0"><Node pos="l" depth="2" NCoef="0" IVar="-1" Cut="0.0e+00" cType="1" res="0.145702481" rms="0.0e+00" purity="0.0e+00" nType="-99" /><Node pos="r" depth="2" NCoef="0" IVar="-1" Cut="0.0e+00" cType="1" res="0.478933722" rms="0.0e+00" purity="0.0e+00" nType="-99" /></Node></Node></BinaryTree><BinaryTree type="DecisionTree" boostWeight="1.0e+00" itree="2"><Node pos="s" depth="0" NCoef="0" IVar="3" Cut="1.31277418" cType="1" res="0.0e+00" rms="0.0e+00" purity="0.0e+00" nType="0"><Node pos="l" depth="1" NCoef="0" IVar="3" Cut="0.72126019" cType="1" res="0.0e+00" rms="0.0e+00" purity="0.0e+00" nType="0"><Node pos="l" depth="2" NCoef="0" IVar="40" Cut="2.85321426" cType="1" res="0.0e+00" rms="0.0e+00" purity="0.0e+00" nType="0"><Node pos="l" depth="3" NCoef="0" IVar="37" Cut="2.77611017" cType="1" res="0.0e+00" rms="0.0e+00" purity="0.0e+00" nType="0"><Node pos="l" depth="4" NCoef="0" IVar="-1" Cut="0.0e+00" cType="1" res="-0.183190182" rms="0.0e+00" purity="0.0e+00" nType="-99" /><Node pos="r" depth="4" NCoef="0" IVar="-1" Cut="0.0e+00" cType="1" res="-0.028425198" rms="0.0e+00" purity="0.0e+00" nType="-99" /></Node><Node pos="r" depth="3" NCoef="0" IVar="-1" Cut="0.0e+00" cType="1" res="-0.0218955614" rms="0.0e+00" purity="0.0e+00" nType="-99" /></Node><Node pos="r" depth="2" NCoef="0" IVar="7" Cut="0.40004614" cType="1" res="0.0e+00" rms="0.0e+00" purity="0.0e+00" nType="0"><Node pos="l" depth="3" NCoef="0" IVar="40" Cut="2.10873938" cType="1" res="0.0e+00" rms="0.0e+00" purity="0.0e+00" nType="0"><Node pos="l" depth="4" NCoef="0" IVar="38" Cut="1.38995421" cType="1" res="0.0e+00" rms="0.0e+00" purity="0.0e+00" nType="0"><Node pos="l" depth="5" NCoef="0" IVar="-1" Cut="0.0e+00" cType="1" res="-0.129728422" rms="0.0e+00" purity="0.0e+00" nType="-99" /><Node pos="r" depth="5" NCoef="0" IVar="-1" Cut="0.0e+00" cType="1" res="0.0135907531" rms="0.0e+00" purity="0.0e+00" nType="-99" /></Node><Node pos="r" depth="4" NCoef="0" IVar="-1" Cut="0.0e+00" cType="1" res="0.0379445069" rms="0.0e+00" purity="0.0e+00" nType="-99" /></Node><Node pos="r" depth="3" NCoef="0" IVar="32" Cut="0.405825853" cType="1" res="0.0e+00" rms="0.0e+00" purity="0.0e+00" nType="0"><Node pos="l" depth="4" NCoef="0" IVar="3" Cut="0.875808716" cType="1" res="0.0e+00" rms="0.0e+00" purity="0.0e+00" nType="0"><Node pos="l" depth="5" NCoef="0" IVar="-1" Cut="0.0e+00" cType="1" res="-0.00575729553" rms="0.0e+00" purity="0.0e+00" nType="-99" /><Node pos="r" depth="5" NCoef="0" IVar="-1" Cut="0.0e+00" cType="1" res="0.0357002281" rms="0.0e+00" purity="0.0e+00" nType="-99" /></Node><Node pos="r" depth="4" NCoef="0" IVar="-1" Cut="0.0e+00" cType="1" res="0.121106826" rms="0.0e+00" purity="0.0e+00" nType="-99" /></Node></Node></Node><Node pos="r" depth="1" NCoef="0" IVar="32" Cut="0.531065822" cType="1" res="0.0e+00" rms="0.0e+00" purity="0.0e+00" nType="0"><Node pos="l" depth="2" NCoef="0" IVar="-1" Cut="0.0e+00" cType="1" res="0.082403332" rms="0.0e+00" purity="0.0e+00" nType="-99" /><Node pos="r" depth="2" NCoef="0" IVar="-1" Cut="0.0e+00" cType="1" res="0.354325563" rms="0.0e+00" purity="0.0e+00" nType="-99" /></Node></Node></BinaryTree><BinaryTree type="DecisionTree" boostWeight="1.0e+00" itree="3"><Node pos="s" depth="0" NCoef="0" IVar="3" Cut="1.60372472" cType="1" res="0.0e+00" rms="0.0e+00" purity="0.0e+00" nType="0"><Node pos="l" depth="1" NCoef="0" IVar="39" Cut="3.30332041" cType="1" res="0.0e+00" rms="0.0e+00" purity="0.0e+00" nType="0"><Node pos="l" depth="2" NCoef="0" IVar="37" Cut="3.22725129" cType="1" res="0.0e+00" rms="0.0e+00" purity="0.0e+00" nType="0"><Node pos="l" depth="3" NCoef="0" IVar="7" Cut="0.639789343" cType="1" res="0.0e+00" rms="0.0e+00" purity="0.0e+00" nType="0"><Node pos="l" depth="4" NCoef="0" IVar="8" Cut="99.6545258" cType="1" res="0.0e+00" rms="0.0e+00" purity="0.0e+00" nType="0"><Node pos="l" depth="5" NCoef="0" IVar="38" Cut="2.62564206" cType="1" res="0.0e+00" rms="0.0e+00" purity="0.0e+00" nType="0"><Node pos="l" depth="6" NCoef="0" IVar="40" Cut="2.94352913" cType="1" res="0.0e+00" rms="0.0e+00" purity="0.0e+00" nType="0"><Node pos="l" depth="7" NCoef="0" IVar="-1" Cut="0.0e+00" cType="1" res="-0.135100707" rms="0.0e+00" purity="0.0e+00" nType="-99" /><Node pos="r" depth="7" NCoef="0" IVar="-1" Cut="0.0e+00" cType="1" res="-0.0309489127" rms="0.0e+00" purity="0.0e+00" nType="-99" /></Node><Node pos="r" depth="6" NCoef="0" IVar="-1" Cut="0.0e+00" cType="1" res="-0.00986477826" rms="0.0e+00" purity="0.0e+00" nType="-99" /></Node><Node pos="r" depth="5" NCoef="0" IVar="-1" Cut="0.0e+00" cType="1" res="0.0124249514" rms="0.0e+00" purity="0.0e+00" nType="-99" /></Node><Node pos="r" depth="4" NCoef="0" IVar="-1" Cut="0.0e+00" cType="1" res="0.0538842566" rms="0.0e+00" purity="0.0e+00" nType="-99" /></Node><Node pos="r" depth="3" NCoef="0" IVar="-1" Cut="0.0e+00" cType="1" res="0.173947737" rms="0.0e+00" purity="0.0e+00" nType="-99" /></Node><Node pos="r" depth="2" NCoef="0" IVar="-1" Cut="0.0e+00" cType="1" res="0.178431109" rms="0.0e+00" purity="0.0e+00" nType="-99" /></Node><Node pos="r" depth="1" NCoef="0" IVar="3" Cut="1.92698288" cType="1" res="0.0e+00" rms="0.0e+00" purity="0.0e+00" nType="0"><Node pos="l" depth="2" NCoef="0" IVar="-1" Cut="0.0e+00" cType="1" res="0.0798609629" rms="0.0e+00" purity="0.0e+00" nType="-99" /><Node pos="r" depth="2" NCoef="0" IVar="-1" Cut="0.0e+00" cType="1" res="0.307354093" rms="0.0e+00" purity="0.0e+00" nType="-99" /></Node></Node></BinaryTree><BinaryTree type="DecisionTree" boostWeight="1.0e+00" itree="4"><Node pos="s" depth="0" NCoef="0" IVar="3" Cut="1.7094419" cType="1" res="0.0e+00" rms="0.0e+00" purity="0.0e+00" nType="0"><Node pos="l" depth="1" NCoef="0" IVar="39" Cut="3.34727621" cType="1" res="0.0e+00" rms="0.0e+00" purity="0.0e+00" nType="0"><Node pos="l" depth="2" NCoef="0" IVar="37" Cut="3.12950993" cType="1" res="0.0e+00" rms="0.0e+00" purity="0.0e+00" nType="0"><Node pos="l" depth="3" NCoef="0" IVar="7" Cut="0.744697452" cType="1" res="0.0e+00" rms="0.0e+00" purity="0.0e+00" nType="0"><Node pos="l" depth="4" NCoef="0" IVar="8" Cut="109.669075" cType="1" res="0.0e+00" rms="0.0e+00" purity="0.0e+00" nType="0"><Node pos="l" depth="5" NCoef="0" IVar="19" Cut="151.445068" cType="1" res="0.0e+00" rms="0.0e+00" purity="0.0e+00" nType="0"><Node pos="l" depth="6" NCoef="0" IVar="40" Cut="3.00611138" cType="1" res="0.0e+00" rms="0.0e+00" purity="0.0e+00" nType="0"><Node pos="l" depth="7" NCoef="0" IVar="10" Cut="1.10242939" cType="1" res="0.0e+00" rms="0.0e+00" purity="0.0e+00" nType="0"><Node pos="l" depth="8" NCoef="0" IVar="-1" Cut="0.0e+00" cType="1" res="-0.0855938718" rms="0.0e+00" purity="0.0e+00" nType="-99" /><Node pos="r" depth="8" NCoef="0" IVar="-1" Cut="0.0e+00" cType="1" res="-0.0292899925" rms="0.0e+00" purity="0.0e+00" nType="-99" /></Node><Node pos="r" depth="7" NCoef="0" IVar="-1" Cut="0.0e+00" cType="1" res="-0.0143306805" rms="0.0e+00" purity="0.0e+00" nType="-99" /></Node><Node pos="r" depth="6" NCoef="0" IVar="-1" Cut="0.0e+00" cType="1" res="-0.0070569138" rms="0.0e+00" purity="0.0e+00" nType="-99" /></Node><Node pos="r" depth="5" NCoef="0" IVar="-1" Cut="0.0e+00" cType="1" res="0.028918691" rms="0.0e+00" purity="0.0e+00" nType="-99" /></Node><Node pos="r" depth="4" NCoef="0" IVar="-1" Cut="0.0e+00" cType="1" res="0.0578376986" rms="0.0e+00" purity="0.0e+00" nType="-99" /></Node><Node pos="r" depth="3" NCoef="0" IVar="-1" Cut="0.0e+00" cType="1" res="0.12414594" rms="0.0e+00" purity="0.0e+00" nType="-99" /></Node><Node pos="r" depth="2" NCoef="0" IVar="-1" Cut="0.0e+00" cType="1" res="0.14810726" rms="0.0e+00" purity="0.0e+00" nType="-99" /></Node><Node pos="r" depth="1" NCoef="0" IVar="3" Cut="2.12391019" cType="1" res="0.0e+00" rms="0.0e+00" purity="0.0e+00" nType="0"><Node pos="l" depth="2" NCoef="0" IVar="-1" Cut="0.0e+00" cType="1" res="0.0678106323" rms="0.0e+00" purity="0.0e+00" nType="-99" /><Node pos="r" depth="2" NCoef="0" IVar="-1" Cut="0.0e+00" cType="1" res="0.248179302" rms="0.0e+00" purity="0.0e+00" nType="-99" /></Node></Node></BinaryTree><BinaryTree type="DecisionTree" boostWeight="1.0e+00" itree="5"><Node pos="s" depth="0" NCoef="0" IVar="7" Cut="0.744697452" cType="1" res="0.0e+00" rms="0.0e+00" purity="0.0e+00" nType="0"><Node pos="l" depth="1" NCoef="0" IVar="39" Cut="3.14337778" cType="1" res="0.0e+00" rms="0.0e+00" purity="0.0e+00" nType="0"><Node pos="l" depth="2" NCoef="0" IVar="38" Cut="2.63151741" cType="1" res="0.0e+00" rms="0.0e+00" purity="0.0e+00" nType="0"><Node pos="l" depth="3" NCoef="0" IVar="35" Cut="0.0543523207" cType="1" res="0.0e+00" rms="0.0e+00" purity="0.0e+00" nType="0"><Node pos="l" depth="4" NCoef="0" IVar="16" Cut="86.0572128" cType="1" res="0.0e+00" rms="0.0e+00" purity="0.0e+00" nType="0"><Node pos="l" depth="5" NCoef="0" IVar="40" Cut="3.06202936" cType="1" res="0.0e+00" rms="0.0e+00" purity="0.0e+00" nType="0"><Node pos="l" depth="6" NCoef="0" IVar="44" Cut="2.41352701" cType="1" res="0.0e+00" rms="0.0e+00" purity="0.0e+00" nType="0"><Node pos="l" depth="7" NCoef="0" IVar="34" Cut="-0.836873591" cType="1" res="0.0e+00" rms="0.0e+00" purity="0.0e+00" nType="0"><Node pos="l" depth="8" NCoef="0" IVar="-1" Cut="0.0e+00" cType="1" res="-0.0784560069" rms="0.0e+00" purity="0.0e+00" nType="-99" /><Node pos="r" depth="8" NCoef="0" IVar="-1" Cut="0.0e+00" cType="1" res="-0.0221510231" rms="0.0e+00" purity="0.0e+00" nType="-99" /></Node><Node pos="r" depth="7" NCoef="0" IVar="-1" Cut="0.0e+00" cType="1" res="-0.0166608412" rms="0.0e+00" purity="0.0e+00" nType="-99" /></Node><Node pos="r" depth="6" NCoef="0" IVar="-1" Cut="0.0e+00" cType="1" res="-0.000202283278" rms="0.0e+00" purity="0.0e+00" nType="-99" /></Node><Node pos="r" depth="5" NCoef="0" IVar="-1" Cut="0.0e+00" cType="1" res="0.00190072786" rms="0.0e+00" purity="0.0e+00" nType="-99" /></Node><Node pos="r" depth="4" NCoef="0" IVar="33" Cut="-0.789770484" cType="1" res="0.0e+00" rms="0.0e+00" purity="0.0e+00" nType="0"><Node pos="l" depth="5" NCoef="0" IVar="-1" Cut="0.0e+00" cType="1" res="-0.0243037231" rms="0.0e+00" purity="0.0e+00" nType="-99" /><Node pos="r" depth="5" NCoef="0" IVar="-1" Cut="0.0e+00" cType="1" res="0.0259909835" rms="0.0e+00" purity="0.0e+00" nType="-99" /></Node></Node><Node pos="r" depth="3" NCoef="0" IVar="37" Cut="2.87744856" cType="1" res="0.0e+00" rms="0.0e+00" purity="0.0e+00" nType="0"><Node pos="l" depth="4" NCoef="0" IVar="-1" Cut="0.0e+00" cType="1" res="-0.0194302015" rms="0.0e+00" purity="0.0e+00" nType="-99" /><Node pos="r" depth="4" NCoef="0" IVar="-1" Cut="0.0e+00" cType="1" res="0.142786875" rms="0.0e+00" purity="0.0e+00" nType="-99" /></Node></Node><Node pos="r" depth="2" NCoef="0" IVar="40" Cut="2.39502478" cType="1" res="0.0e+00" rms="0.0e+00" purity="0.0e+00" nType="0"><Node pos="l" depth="3" NCoef="0" IVar="-1" Cut="0.0e+00" cType="1" res="-0.0413675234" rms="0.0e+00" purity="0.0e+00" nType="-99" /><Node pos="r" depth="3" NCoef="0" IVar="-1" Cut="0.0e+00" cType="1" res="0.175599039" rms="0.0e+00" purity="0.0e+00" nType="-99" /></Node></Node><Node pos="r" depth="1" NCoef="0" IVar="-1" Cut="0.0e+00" cType="1" res="0.173304319" rms="0.0e+00" purity="0.0e+00" nType="-99" /></Node></BinaryTree><BinaryTree type="DecisionTree" boostWeight="1.0e+00" itree="6"><Node pos="s" depth="0" NCoef="0" IVar="3" Cut="2.25989437" cType="1" res="0.0e+00" rms="0.0e+00" purity="0.0e+00" nType="0"><Node pos="l" depth="1" NCoef="0" IVar="40" Cut="3.24446607" cType="1" res="0.0e+00" rms="0.0e+00" purity="0.0e+00" nType="0"><Node pos="l" depth="2" NCoef="0" IVar="38" Cut="3.10127187" cType="1" res="0.0e+00" rms="0.0e+00" purity="0.0e+00" nType="0"><Node pos="l" depth="3" NCoef="0" IVar="11" Cut="212.200348" cType="1" res="0.0e+00" rms="0.0e+00" purity="0.0e+00" nType="0"><Node pos="l" depth="4" NCoef="0" IVar="16" Cut="106.566132" cType="1" res="0.0e+00" rms="0.0e+00" purity="0.0e+00" nType="0"><Node pos="l" depth="5" NCoef="0" IVar="33" Cut="-0.946244717" cType="1" res="0.0e+00" rms="0.0e+00" purity="0.0e+00" nType="0"><Node pos="l" depth="6" NCoef="0" IVar="36" Cut="-0.308245957" cType="1" res="0.0e+00" rms="0.0e+00" purity="0.0e+00" nType="0"><Node pos="l" depth="7" NCoef="0" IVar="-1" Cut="0.0e+00" cType="1" res="-0.079997614" rms="0.0e+00" purity="0.0e+00" nType="-99" /><Node pos="r" depth="7" NCoef="0" IVar="38" Cut="1.57200289" cType="1" res="0.0e+00" rms="0.0e+00" purity="0.0e+00" nType="0"><Node pos="l" depth="8" NCoef="0" IVar="-1" Cut="0.0e+00" cType="1" res="-0.0580283254" rms="0.0e+00" purity="0.0e+00" nType="-99" /><Node pos="r" depth="8" NCoef="0" IVar="-1" Cut="0.0e+00" cType="1" res="0.0284983814" rms="0.0e+00" purity="0.0e+00" nType="-99" /></Node></Node><Node pos="r" depth="6" NCoef="0" IVar="39" Cut="2.84121132" cType="1" res="0.0e+00" rms="0.0e+00" purity="0.0e+00" nType="0"><Node pos="l" depth="7" NCoef="0" IVar="35" Cut="-0.814194322" cType="1" res="0.0e+00" rms="0.0e+00" purity="0.0e+00" nType="0"><Node pos="l" depth="8" NCoef="0" IVar="-1" Cut="0.0e+00" cType="1" res="-0.0727162734" rms="0.0e+00" purity="0.0e+00" nType="-99" /><Node pos="r" depth="8" NCoef="0" IVar="32" Cut="-0.667583168" cType="1" res="0.0e+00" rms="0.0e+00" purity="0.0e+00" nType="0"><Node pos="l" depth="9" NCoef="0" IVar="-1" Cut="0.0e+00" cType="1" res="-0.0285765361" rms="0.0e+00" purity="0.0e+00" nType="-99" /><Node pos="r" depth="9" NCoef="0" IVar="-1" Cut="0.0e+00" cType="1" res="0.0128870718" rms="0.0e+00" purity="0.0e+00" nType="-99" /></Node></Node><Node pos="r" depth="7" NCoef="0" IVar="-1" Cut="0.0e+00" cType="1" res="0.0562420227" rms="0.0e+00" purity="0.0e+00" nType="-99" /></Node></Node><Node pos="r" depth="5" NCoef="0" IVar="-1" Cut="0.0e+00" cType="1" res="0.0372646414" rms="0.0e+00" purity="0.0e+00" nType="-99" /></Node><Node pos="r" depth="4" NCoef="0" IVar="-1" Cut="0.0e+00" cType="1" res="0.0447664522" rms="0.0e+00" purity="0.0e+00" nType="-99" /></Node><Node pos="r" depth="3" NCoef="0" IVar="-1" Cut="0.0e+00" cType="1" res="0.119825087" rms="0.0e+00" purity="0.0e+00" nType="-99" /></Node><Node pos="r" depth="2" NCoef="0" IVar="-1" Cut="0.0e+00" cType="1" res="0.12682341" rms="0.0e+00" purity="0.0e+00" nType="-99" /></Node><Node pos="r" depth="1" NCoef="0" IVar="-1" Cut="0.0e+00" cType="1" res="0.173459485" rms="0.0e+00" purity="0.0e+00" nType="-99" /></Node></BinaryTree><BinaryTree type="DecisionTree" boostWeight="1.0e+00" itree="7"><Node pos="s" depth="0" NCoef="0" IVar="7" Cut="0.91404283" cType="1" res="0.0e+00" rms="0.0e+00" purity="0.0e+00" nType="0"><Node pos="l" depth="1" NCoef="0" IVar="37" Cut="3.25233841" cType="1" res="0.0e+00" rms="0.0e+00" purity="0.0e+00" nType="0"><Node pos="l" depth="2" NCoef="0" IVar="39" Cut="3.14337778" cType="1" res="0.0e+00" rms="0.0e+00" purity="0.0e+00" nType="0"><Node pos="l" depth="3" NCoef="0" IVar="32" Cut="0.27805841" cType="1" res="0.0e+00" rms="0.0e+00" purity="0.0e+00" nType="0"><Node pos="l" depth="4" NCoef="0" IVar="32" Cut="-0.646323204" cType="1" res="0.0e+00" rms="0.0e+00" purity="0.0e+00" nType="0"><Node pos="l" depth="5" NCoef="0" IVar="3" Cut="0.772699296" cType="1" res="0.0e+00" rms="0.0e+00" purity="0.0e+00" nType="0"><Node pos="l" depth="6" NCoef="0" IVar="3" Cut="0.57209444" cType="1" res="0.0e+00" rms="0.0e+00" purity="0.0e+00" nType="0"><Node pos="l" depth="7" NCoef="0" IVar="-1" Cut="0.0e+00" cType="1" res="-0.0134877339" rms="0.0e+00" purity="0.0e+00" nType="-99" /><Node pos="r" depth="7" NCoef="0" IVar="-1" Cut="0.0e+00" cType="1" res="-0.0438885838" rms="0.0e+00" purity="0.0e+00" nType="-99" /></Node><Node pos="r" depth="6" NCoef="0" IVar="-1" Cut="0.0e+00" cType="1" res="0.000574821723" rms="0.0e+00" purity="0.0e+00" nType="-99" /></Node><Node pos="r" depth="5" NCoef="0" IVar="39" Cut="2.66164351" cType="1" res="0.0e+00" rms="0.0e+00" purity="0.0e+00" nType="0"><Node pos="l" depth="6" NCoef="0" IVar="37" Cut="2.47950697" cType="1" res="0.0e+00" rms="0.0e+00" purity="0.0e+00" nType="0"><Node pos="l" depth="7" NCoef="0" IVar="33" Cut="-0.674779892" cType="1" res="0.0e+00" rms="0.0e+00" purity="0.0e+00" nType="0"><Node pos="l" depth="8" NCoef="0" IVar="-1" Cut="0.0e+00" cType="1" res="-0.037974786" rms="0.0e+00" purity="0.0e+00" nType="-99" /><Node pos="r" depth="8" NCoef="0" IVar="-1" Cut="0.0e+00" cType="1" res="0.0103473375" rms="0.0e+00" purity="0.0e+00" nType="-99" /></Node><Node pos="r" depth="7" NCoef="0" IVar="-1" Cut="0.0e+00" cType="1" res="0.0165329576" rms="0.0e+00" purity="0.0e+00" nType="-99" /></Node><Node pos="r" depth="6" NCoef="0" IVar="-1" Cut="0.0e+00" cType="1" res="0.0481269173" rms="0.0e+00" purity="0.0e+00" nType="-99" /></Node></Node><Node pos="r" depth="4" NCoef="0" IVar="8" Cut="53.5724411" cType="1" res="0.0e+00" rms="0.0e+00" purity="0.0e+00" nType="0"><Node pos="l" depth="5" NCoef="0" IVar="16" Cut="48.4835625" cType="1" res="0.0e+00" rms="0.0e+00" purity="0.0e+00" nType="0"><Node pos="l" depth="6" NCoef="0" IVar="-1" Cut="0.0e+00" cType="1" res="0.0305841696" rms="0.0e+00" purity="0.0e+00" nType="-99" /><Node pos="r" depth="6" NCoef="0" IVar="-1" Cut="0.0e+00" cType="1" res="-0.0539242364" rms="0.0e+00" purity="0.0e+00" nType="-99" /></Node><Node pos="r" depth="5" NCoef="0" IVar="-1" Cut="0.0e+00" cType="1" res="-0.0841307417" rms="0.0e+00" purity="0.0e+00" nType="-99" /></Node></Node><Node pos="r" depth="3" NCoef="0" IVar="40" Cut="2.44991422" cType="1" res="0.0e+00" rms="0.0e+00" purity="0.0e+00" nType="0"><Node pos="l" depth="4" NCoef="0" IVar="-1" Cut="0.0e+00" cType="1" res="-0.0224655829" rms="0.0e+00" purity="0.0e+00" nType="-99" /><Node pos="r" depth="4" NCoef="0" IVar="-1" Cut="0.0e+00" cType="1" res="0.133123621" rms="0.0e+00" purity="0.0e+00" nType="-99" /></Node></Node><Node pos="r" depth="2" NCoef="0" IVar="-1" Cut="0.0e+00" cType="1" res="0.108465098" rms="0.0e+00" purity="0.0e+00" nType="-99" /></Node><Node pos="r" depth="1" NCoef="0" IVar="-1" Cut="0.0e+00" cType="1" res="0.131718144" rms="0.0e+00" purity="0.0e+00" nType="-99" /></Node></BinaryTree><BinaryTree type="DecisionTree" boostWeight="1.0e+00" itree="8"><Node pos="s" depth="0" NCoef="0" IVar="3" Cut="2.4271946" cType="1" res="0.0e+00" rms="0.0e+00" purity="0.0e+00" nType="0"><Node pos="l" depth="1" NCoef="0" IVar="3" Cut="0.637477219" cType="1" res="0.0e+00" rms="0.0e+00" purity="0.0e+00" nType="0"><Node pos="l" depth="2" NCoef="0" IVar="7" Cut="0.354456186" cType="1" res="0.0e+00" rms="0.0e+00" purity="0.0e+00" nType="0"><Node pos="l" depth="3" NCoef="0" IVar="-1" Cut="0.0e+00" cType="1" res="-0.0648837388" rms="0.0e+00" purity="0.0e+00" nType="-99" /><Node pos="r" depth="3" NCoef="0" IVar="10" Cut="-1.40042257" cType="1" res="0.0e+00" rms="0.0e+00" purity="0.0e+00" nType="0"><Node pos="l" depth="4" NCoef="0" IVar="-1" Cut="0.0e+00" cType="1" res="0.00362484413" rms="0.0e+00" purity="0.0e+00" nType="-99" /><Node pos="r" depth="4" NCoef="0" IVar="-1" Cut="0.0e+00" cType="1" res="-0.0297157038" rms="0.0e+00" purity="0.0e+00" nType="-99" /></Node></Node><Node pos="r" depth="2" NCoef="0" IVar="39" Cut="3.23832202" cType="1" res="0.0e+00" rms="0.0e+00" purity="0.0e+00" nType="0"><Node pos="l" depth="3" NCoef="0" IVar="37" Cut="3.13260722" cType="1" res="0.0e+00" rms="0.0e+00" purity="0.0e+00" nType="0"><Node pos="l" depth="4" NCoef="0" IVar="33" Cut="-0.744441748" cType="1" res="0.0e+00" rms="0.0e+00" purity="0.0e+00" nType="0"><Node pos="l" depth="5" NCoef="0" IVar="34" Cut="-0.762694716" cType="1" res="0.0e+00" rms="0.0e+00" purity="0.0e+00" nType="0"><Node pos="l" depth="6" NCoef="0" IVar="39" Cut="2.94645214" cType="1" res="0.0e+00" rms="0.0e+00" purity="0.0e+00" nType="0"><Node pos="l" depth="7" NCoef="0" IVar="3" Cut="1.04977596" cType="1" res="0.0e+00" rms="0.0e+00" purity="0.0e+00" nType="0"><Node pos="l" depth="8" NCoef="0" IVar="7" Cut="0.435292125" cType="1" res="0.0e+00" rms="0.0e+00" purity="0.0e+00" nType="0"><Node pos="l" depth="9" NCoef="0" IVar="-1" Cut="0.0e+00" cType="1" res="-0.0348059647" rms="0.0e+00" purity="0.0e+00" nType="-99" /><Node pos="r" depth="9" NCoef="0" IVar="-1" Cut="0.0e+00" cType="1" res="0.0103341313" rms="0.0e+00" purity="0.0e+00" nType="-99" /></Node><Node pos="r" depth="8" NCoef="0" IVar="-1" Cut="0.0e+00" cType="1" res="-0.0891965553" rms="0.0e+00" purity="0.0e+00" nType="-99" /></Node><Node pos="r" depth="7" NCoef="0" IVar="33" Cut="-0.983043253" cType="1" res="0.0e+00" rms="0.0e+00" purity="0.0e+00" nType="0"><Node pos="l" depth="8" NCoef="0" IVar="-1" Cut="0.0e+00" cType="1" res="-0.0398192815" rms="0.0e+00" purity="0.0e+00" nType="-99" /><Node pos="r" depth="8" NCoef="0" IVar="-1" Cut="0.0e+00" cType="1" res="0.0493210256" rms="0.0e+00" purity="0.0e+00" nType="-99" /></Node></Node><Node pos="r" depth="6" NCoef="0" IVar="-1" Cut="0.0e+00" cType="1" res="0.0343916267" rms="0.0e+00" purity="0.0e+00" nType="-99" /></Node><Node pos="r" depth="5" NCoef="0" IVar="-1" Cut="0.0e+00" cType="1" res="0.0488948897" rms="0.0e+00" purity="0.0e+00" nType="-99" /></Node><Node pos="r" depth="4" NCoef="0" IVar="-1" Cut="0.0e+00" cType="1" res="0.0928669572" rms="0.0e+00" purity="0.0e+00" nType="-99" /></Node><Node pos="r" depth="3" NCoef="0" IVar="-1" Cut="0.0e+00" cType="1" res="0.108561881" rms="0.0e+00" purity="0.0e+00" nType="-99" /></Node></Node><Node pos="r" depth="1" NCoef="0" IVar="-1" Cut="0.0e+00" cType="1" res="0.128440425" rms="0.0e+00" purity="0.0e+00" nType="-99" /></Node></BinaryTree><BinaryTree type="DecisionTree" boostWeight="1.0e+00" itree="9"><Node pos="s" depth="0" NCoef="0" IVar="38" Cut="3.06261539" cType="1" res="0.0e+00" rms="0.0e+00" purity="0.0e+00" nType="0"><Node pos="l" depth="1" NCoef="0" IVar="8" Cut="164.137833" cType="1" res="0.0e+00" rms="0.0e+00" purity="0.0e+00" nType="0"><Node pos="l" depth="2" NCoef="0" IVar="40" Cut="3.19709253" cType="1" res="0.0e+00" rms="0.0e+00" purity="0.0e+00" nType="0"><Node pos="l" depth="3" NCoef="0" IVar="19" Cut="229.794876" cType="1" res="0.0e+00" rms="0.0e+00" purity="0.0e+00" nType="0"><Node pos="l" depth="4" NCoef="0" IVar="32" Cut="0.290694505" cType="1" res="0.0e+00" rms="0.0e+00" purity="0.0e+00" nType="0"><Node pos="l" depth="5" NCoef="0" IVar="3" Cut="0.960081518" cType="1" res="0.0e+00" rms="0.0e+00" purity="0.0e+00" nType="0"><Node pos="l" depth="6" NCoef="0" IVar="11" Cut="99.9541931" cType="1" res="0.0e+00" rms="0.0e+00" purity="0.0e+00" nType="0"><Node pos="l" depth="7" NCoef="0" IVar="38" Cut="2.0070827" cType="1" res="0.0e+00" rms="0.0e+00" purity="0.0e+00" nType="0"><Node pos="l" depth="8" NCoef="0" IVar="35" Cut="0.613178253" cType="1" res="0.0e+00" rms="0.0e+00" purity="0.0e+00" nType="0"><Node pos="l" depth="9" NCoef="0" IVar="1" Cut="1.4693048" cType="1" res="0.0e+00" rms="0.0e+00" purity="0.0e+00" nType="0"><Node pos="l" depth="10" NCoef="0" IVar="-1" Cut="0.0e+00" cType="1" res="-0.0515645668" rms="0.0e+00" purity="0.0e+00" nType="-99" /><Node pos="r" depth="10" NCoef="0" IVar="-1" Cut="0.0e+00" cType="1" res="-0.0132976482" rms="0.0e+00" purity="0.0e+00" nType="-99" /></Node><Node pos="r" depth="9" NCoef="0" IVar="-1" Cut="0.0e+00" cType="1" res="-0.0100622121" rms="0.0e+00" purity="0.0e+00" nType="-99" /></Node><Node pos="r" depth="8" NCoef="0" IVar="-1" Cut="0.0e+00" cType="1" res="-0.00083042687" rms="0.0e+00" purity="0.0e+00" nType="-99" /></Node><Node pos="r" depth="7" NCoef="0" IVar="-1" Cut="0.0e+00" cType="1" res="0.0176470354" rms="0.0e+00" purity="0.0e+00" nType="-99" /></Node><Node pos="r" depth="6" NCoef="0" IVar="-1" Cut="0.0e+00" cType="1" res="0.0336311236" rms="0.0e+00" purity="0.0e+00" nType="-99" /></Node><Node pos="r" depth="5" NCoef="0" IVar="45" Cut="1.85467696" cType="1" res="0.0e+00" rms="0.0e+00" purity="0.0e+00" nType="0"><Node pos="l" depth="6" NCoef="0" IVar="-1" Cut="0.0e+00" cType="1" res="-0.0710721239" rms="0.0e+00" purity="0.0e+00" nType="-99" /><Node pos="r" depth="6" NCoef="0" IVar="-1" Cut="0.0e+00" cType="1" res="-0.00684965402" rms="0.0e+00" purity="0.0e+00" nType="-99" /></Node></Node><Node pos="r" depth="4" NCoef="0" IVar="-1" Cut="0.0e+00" cType="1" res="0.045411393" rms="0.0e+00" purity="0.0e+00" nType="-99" /></Node><Node pos="r" depth="3" NCoef="0" IVar="-1" Cut="0.0e+00" cType="1" res="0.0671519786" rms="0.0e+00" purity="0.0e+00" nType="-99" /></Node><Node pos="r" depth="2" NCoef="0" IVar="-1" Cut="0.0e+00" cType="1" res="0.100659147" rms="0.0e+00" purity="0.0e+00" nType="-99" /></Node><Node pos="r" depth="1" NCoef="0" IVar="-1" Cut="0.0e+00" cType="1" res="0.0995663702" rms="0.0e+00" purity="0.0e+00" nType="-99" /></Node></BinaryTree></Weights></MethodSetup>